svm_type c_svc
kernel_type rbf
gamma 0.00012207
nr_class 13
total_sv 52
rho 0.844871 1.4303 -0.365433 -0.119305 -0.247353 1.88241 1.16898 -0.227333 0.354562 0.165349 -0.306689 -0.516971 -0.0527089 -0.587473 -0.883101 -0.808724 0.846783 0.270662 -0.341691 0.0906525 0.0654242 -0.566705 -1.14134 -0.495169 -0.698345 -0.793287 0.109694 -0.286785 -0.0932567 -0.122031 -0.139728 -0.271377 -0.845598 0.157409 0 0.599221 0.444227 0 0.327643 0.679284 0 0 -0.207379 1.53745 0.813356 -0.187928 0.132898 0.361925 -0.228061 -0.505626 0.822549 0.435045 0 0.283722 0.180988 0 0 -0.528973 -0.533833 -1.16136 -0.0686991 -0.682971 -1.02149 -0.267813 -0.253623 0.0699758 -0.321835 -0.780104 0.233295 0.131901 0 0 0.0205724 -0.148761 -0.70977 -0.15524 -0.936318 0
label 0 1 2 3 4 5 6 7 8 9 10 11 12
nr_sv 6 6 6 1 4 1 7 6 1 6 6 1 1
SV
25.27721639492034 104.1080313940899 0 0 5.627548599216405 21.10535756010433 58.01889961628549 0 0 18.70065956393471 7.235228469357345 0 0:-0.789077 1:0.142857 2:0.0719277 3:-0.681481 4:-0.396436 5:-0.331614 6:-0.513012 7:-0.970042 8:0.364302 9:-0.666786 10:-0.699021 11:-0.425598 12:-0.596971 13:-0.37486 14:-0.15783 15:-0.666799 16:-0.674734 17:-0.36909 18:-0.498847 19:0.00939306 20:-0.245579 21:-0.425443 22:-0.515782 23:-0.00834073 24:-0.0498866 25:0.0717222 26:-0.427364 27:-0.0836408 28:-0.0164407 29:-0.816646 30:-0.436815 31:-0.317766 32:-0.392616 33:-0.649109 34:0.0719277 35:-0.429384 36:-0.239658 37:-0.571538 38:-0.035266 39:-0.47949 40:-0.824576 41:-0.130856 42:0.211364 43:0.241538 44:-0.117666 45:0.209088 46:-0.496168 47:-0.945015 48:-0.158786 49:0.20328 50:-0.537028 51:-0.561347 52:-0.761169 53:-0.444383 54:-0.482099 55:-0.664466 56:-0.00493218 57:-0.655204 58:-0.795862 59:-0.872762 60:-0.104556 61:-0.283654 62:-0.552888 63:-0.675743 64:-0.696476 65:-0.971046 66:-0.267051 67:-0.550263 68:0.605074 69:-0.904556 70:0.0887354 71:-0.298163 72:-0.927576 73:-0.414979 74:-0.734284 75:0.364302 76:-0.618286 77:0.245098 78:-0.570417 79:-0.51147 80:-0.778635 81:0.228136 82:-0.754166 83:-0.699156 84:-0.902792 85:-1 86:-0.541889 87:-0.840625 88:-0.596841 89:-0.0777228 90:-0.712876 91:-0.664052 92:0.451005 93:-0.914182 94:-0.145133 95:0.179964 96:-0.387587 97:0.249641 98:0.216756 99:-0.960476 100:-0.6209 101:0.251353 102:0.225203 103:-0.144357 104:-0.732544 105:-0.701183 106:-0.510994 107:0.0641392 108:-0.814778 109:-0.931005 110:0.136136 111:-0.540485 112:-0.935743 113:-0.327721 114:0.0910543 115:-0.537028 116:-0.753148 117:-0.493887 118:-0.264405 119:-0.778702 120:-0.649109 121:-0.642691 122:-0.196933 123:-0.166356 124:-0.636218 125:-0.541638 126:0.221731 127:-0.865593 128:-0.781909 129:-0.444383 130:-0.993901 131:-0.693794 132:-0.483115 133:-0.652742 134:-0.386802 135:-0.47197 136:-0.440341 137:-0.305666 138:-0.506296 139:-0.631254 140:-0.57107 141:-0.959695 142:-0.23413 143:-0.814911 144:-0.90609 145:-0.824476 146:-0.541615 147:-0.603671 148:-0.751705 149:-0.739556 150:-0.825039 151:-0.796569 152:-0.51158 153:-0.647258 154:-0.993729 155:0.66899 156:-0.358685 157:-0.934236 158:-0.387587 159:-0.81334 160:-0.622233 161:-0.674436 162:-0.964291 163:0.593583 164:-0.425598 165:-0.598755 166:0.29678 167:-0.28714 168:-0.681164 169:-0.799318 170:-0.415657 171:0.365591 172:-0.793715 173:-0.235505 174:-0.589602 175:0.0852149 176:-0.795133 177:-0.0971054 178:-0.709878 179:-0.468701 180:-0.830223 181:-0.166356 182:0.440516 183:0.111001 184:-0.650287 185:-0.377795 186:0.0575092 187:-0.493 188:-0.155668 189:-0.166232 190:-0.438553 191:0.15681 192:-0.976259 193:-0.987198 194:-0.733439 195:-0.922256 196:0.212721 197:-0.348847 198:-0.621371 199:-0.264076 200:-0.888557 201:0.210048 202:0.169728 203:-0.439934 204:-0.814899 205:-0.362612 206:-1 207:-0.452498 208:-0.356571 209:0.0623886 210:0.321369 211:-0.797388 212:0.0411178 213:-0.987625 214:-0.758372 215:-0.767882 216:0.220509 217:-0.303487 218:-0.308205 219:-0.590517 220:-0.582991 221:0.503603 222:-0.261372 223:-0.910162 224:-0.814861 225:-0.737325 226:-0.541889 227:-0.573555 228:-0.970246 229:-0.982566 230:-0.0387025 231:0.246346 232:-0.427191 233:-0.66862 234:-0.109384 235:-0.918226 236:-0.483115 237:-0.151271 238:-0.638403 239:-0.465087 240:-0.814778 241:-0.313306 242:-0.27425 243:-0.770242 244:-0.64357 245:-0.348871 246:-0.166232 247:-0.809006 248:-0.840642 249:-0.47543 250:-0.784225 251:-0.291484 252:-0.402885 253:-0.0743042 254:-0.387587 255:-0.970798 256:-0.212529 257:-0.755035 258:-0.242254 259:0.148805 260:-0.518688 261:-0.511726 262:0.0487329 263:-0.725051 264:-0.555503 265:-0.561378 266:-0.435232 267:0.11132 268:-0.104654 269:0.220509 270:-0.417006 271:-0.513024 272:-0.923479 273:-0.65617 274:-0.444665 275:-0.325944 276:-0.71348 277:-0.0751407 278:0.077101 279:-0.729776 280:-0.473701 281:-1 282:-0.746598 283:-0.0717253 284:-0.0846154 285:-0.783963 286:-0.402496 287:-0.0904652 288:-0.707646 289:0.38978 290:-0.366479 291:-0.425929 292:0.190096 293:0.479929 294:-0.182177 295:-0.67714 296:-0.731805 297:-0.546746 298:-0.666542 299:-0.285382 300:-1 301:-0.312889 302:-0.693809 303:-0.506824 304:-0.268838 305:-0.619829 306:-0.950437 307:0.528534 308:-0.640389 309:0.105966 310:-0.643114 311:-0.331179 312:0.0748422 313:-0.346939 314:-0.583387 315:0.286858 316:-0.264405 317:-0.380908 318:0.448833 319:-0.425598 320:-0.436717 321:-0.36909 322:-0.336621 323:-1 324:0.103976 325:-0.753148 326:-0.798528 327:0.507012 328:-0.266521 329:-0.108186 330:-0.547455 331:0.0577378 332:-0.593026 333:0.220509 334:-0.80505 335:-0.624089 336:-0.781589 337:-0.463246 338:-0.351469 339:-0.847205 340:-0.795274 341:-0.814746 342:-0.0437758 343:-0.0748215 344:-0.410485 345:-0.623061 346:-0.36784 347:0.444285 348:-0.768638 349:0.562144 350:-0.544966 351:-0.306291 352:-0.592436 353:-0.68743 354:-0.387587 355:-0.959392 356:-0.397986 357:0.261676 358:-0.546659 359:-0.39836 360:-0.626789 361:-0.77658 362:-0.442282 363:-0.490489 364:-0.583977 365:-0.0695619 366:-0.60505 367:-0.748616 368:-0.921814 369:-0.56046 370:-0.134378 371:-0.225078 372:-0.629491 373:0.175542 374:-0.108186 375:-0.721994 376:0.169545 377:0.266876 378:-0.0200861 379:-0.355434 380:-0.153045 381:-0.774413 382:-0.722192 383:-0.490775 384:0.0965463 385:-0.259443 386:-0.398313 387:-0.271508 388:-0.447765 389:0.671513 390:-0.430863 391:-0.28674 392:-0.946061 393:-0.197702 394:-0.0776402 395:-0.440774 396:-0.426813 397:-0.618379 398:-0.321074 399:0.0698259 400:-0.819696 401:-0.814861 402:-0.756171 403:-0.382689 404:-0.715691 405:-0.115027 406:-0.463643 407:-0.908391 408:0.727966 409:-0.571229 410:-0.649109 411:-0.770808 412:0.136136 413:0.180903 414:-0.567926 415:-0.235733 416:-0.702556 417:-0.513614 418:-0.733543 419:0.00539707 420:-0.413914 421:-0.898587 422:-0.580341 423:-0.910417 424:-0.601227 425:-0.426813 426:0.636649 427:-0.388655 428:-0.770643 429:-0.00580939 430:-0.595001 431:0.0529125 432:-0.291741 433:0.020024 434:-0.561429 435:-0.719296 436:-0.662605 437:-0.765931 438:-0.712799 439:-0.552278 440:-0.988032 441:-0.632552 442:-0.948481 443:-0.53674 444:-0.961519 445:0.131932 446:-0.414652 447:-0.0669399 448:-0.540759 449:0.010533 450:-0.464688 451:-0.579571 452:-0.786277 453:0.110835 454:-0.0836408 455:-0.732625 456:-0.591725 457:-0.240204 458:0.228205 459:-0.529052 460:-0.473701 461:-0.108186 462:0.104596 463:-0.795274 464:-0.544136 
211.6167904825183 295.1257187869485 21.23385930973607 143.7464019007734 122.2895841078146 181.5619837580136 183.0299897171135 6.260532833820744 56.7896861745817 17.28691629896834 23.19595216495174 34.4499686436735 0:-0.447599 1:-0.143103 2:-0.0743938 3:-0.358405 4:-0.34853 5:-0.494897 6:-0.330957 7:-0.951714 8:0.128759 9:-0.516544 10:-0.732389 11:-0.218581 12:-0.208006 13:-0.286087 14:-0.305795 15:-0.619483 16:-0.859531 17:-0.173465 18:-0.307456 19:-0.348988 20:-0.239908 21:-0.0621434 22:-0.672092 23:-0.360426 24:0.979025 25:-0.236334 26:-0.264412 27:-0.0766708 28:-0.75663 29:-0.907667 30:-0.716266 31:-0.814286 32:-0.855695 33:-0.64644 34:-0.444718 35:-0.654961 36:-0.858545 37:-0.602822 38:-0.14724 39:-0.592766 40:-0.870316 41:-0.353078 42:-0.306178 43:-0.0758974 44:-0.418021 45:0.0965648 46:-0.370481 47:-0.468352 48:-0.0780522 49:-0.216203 50:-0.356362 51:-0.73483 52:-0.725659 53:-0.55805 54:-0.138686 55:0.14886 56:0.203453 57:-0.0969931 58:-0.722154 59:-0.923056 60:-0.23719 61:-0.494551 62:-0.222806 63:-0.46786 64:-0.449379 65:-0.986005 66:0.0044596 67:-0.653863 68:0.132121 69:-0.820444 70:0.0770457 71:-0.363479 72:-0.973721 73:-0.610928 74:-0.65205 75:-0.175019 76:0.0619106 77:-0.0967023 78:0.0759348 79:-0.261962 80:-0.39822 81:0.237557 82:-0.331133 83:-0.57548 84:-0.647396 85:-0.948104 86:-0.538335 87:-0.903656 88:-0.488206 89:-0.275248 90:-0.583346 91:-0.350104 92:-0.353424 93:-0.854634 94:-0.331173 95:-0.286478 96:-0.136046 97:0.348826 98:0.0388163 99:-0.880365 100:-0.567066 101:-0.369659 102:-0.259131 103:0.404199 104:-0.433854 105:-0.668828 106:-0.753637 107:-0.180992 108:-0.552353 109:-0.90274 110:-0.116968 111:-0.629675 112:-0.831714 113:-0.119663 114:0.379127 115:-0.636183 116:-0.738734 117:-0.499321 118:-0.15096 119:-0.893035 120:-0.664024 121:-0.382929 122:0.0253953 123:0.344275 124:-0.600178 125:-0.784493 126:-0.421931 127:-0.471988 128:-0.793984 129:-0.82322 130:-0.892915 131:-0.467735 132:-0.583346 133:-0.70608 134:-0.595691 135:-0.719404 136:-0.464129 137:-0.468191 138:-0.552353 139:-0.828497 140:-0.740737 141:-0.911655 142:0.620663 143:-0.820875 144:-0.933809 145:-0.0630348 146:0.523575 147:-0.670435 148:-0.780524 149:-0.783429 150:0.268858 151:-0.335518 152:-0.803205 153:-0.527828 154:-0.99619 155:-0.159283 156:-0.0131455 157:-0.95456 158:0.157008 159:-0.774439 160:-0.695557 161:-0.770284 162:-0.913743 163:0.124421 164:-0.189668 165:-0.460857 166:-0.0759667 167:-0.692224 168:-0.486097 169:-0.696823 170:-0.197205 171:0.0459433 172:-0.625917 173:-0.22969 174:-0.40456 175:-0.114057 176:-0.845181 177:-0.229146 178:-0.438454 179:-0.58249 180:-0.282203 181:0.469974 182:-0.211786 183:-0.589463 184:-0.483151 185:-0.07376 186:-0.587546 187:-0.547446 188:-0.0357683 189:-0.46786 190:-0.413618 191:-0.586733 192:-0.856665 193:-0.868263 194:-0.677614 195:-0.919454 196:-0.746087 197:-0.138862 198:-0.91411 199:0.372078 200:-0.775518 201:-0.024686 202:-0.0805464 203:-0.476835 204:-0.863162 205:0.0597462 206:-0.976641 207:-0.117532 208:-0.0805464 209:-0.0766488 210:0.59808 211:-0.460936 212:-0.415569 213:-0.977512 214:-0.900044 215:-0.560272 216:0.38936 217:-0.628424 218:-0.655414 219:-0.327995 220:-0.243939 221:-0.415393 222:-0.40456 223:-0.901885 224:-0.636183 225:-0.870008 226:-0.538335 227:-0.903263 228:-0.925083 229:-0.9719 230:-0.0453373 231:-0.0480718 232:0.385021 233:-0.693532 234:0.121737 235:-0.901103 236:-0.201234 237:-0.605259 238:-0.659763 239:0.212709 240:-0.402916 241:-0.0453373 242:-0.736658 243:-0.120427 244:-0.476835 245:-0.409468 246:-0.580007 247:-0.653503 248:-0.847415 249:-0.153991 250:-0.728966 251:-0.604624 252:-0.494551 253:-0.552187 254:-0.444581 255:-0.681765 256:-0.827056 257:-0.722318 258:-0.577152 259:0.04202 260:-0.820875 261:0.017043 262:-0.512237 263:-0.870685 264:0.397947 265:-0.535865 266:-0.871885 267:-0.434134 268:-0.114267 269:-0.30532 270:-0.412624 271:-0.495285 272:-0.67648 273:-0.953841 274:-0.402916 275:-0.286587 276:-0.696814 277:-0.477987 278:0.0851966 279:-0.87927 280:-0.646412 281:-0.955442 282:-0.882144 283:-0.126558 284:-0.735256 285:-0.682903 286:0.00356506 287:-0.30532 288:-0.045062 289:-0.075718 290:0.06084 291:-0.305721 292:-0.460463 293:-0.814769 294:-0.110184 295:-0.658288 296:-0.918882 297:-0.796687 298:-0.798433 299:-0.691465 300:-0.888504 301:-0.428637 302:-0.861187 303:-0.35771 304:-0.204474 305:-0.893948 306:-0.840227 307:-0.537859 308:-0.724564 309:-0.331552 310:-0.0831138 311:-0.231736 312:0.0153291 313:-0.125829 314:-0.460383 315:-0.0805464 316:-0.635972 317:0.00592085 318:0.68462 319:0.259059 320:-0.27041 321:-0.23698 322:-0.537197 323:-0.979112 324:0.891331 325:-0.720179 326:-0.220082 327:-0.271305 328:-0.507221 329:0.185735 330:-0.391927 331:0.225745 332:-0.847445 333:-0.348882 334:-0.587335 335:-0.292811 336:-0.669892 337:0.493226 338:-0.264853 339:-0.35356 340:-0.91161 341:-0.551908 342:-0.421931 343:0.0487426 344:-0.153314 345:-0.506406 346:-0.681516 347:-0.256175 348:-0.608101 349:0.956274 350:-0.669599 351:-0.430775 352:-0.29614 353:-0.580007 354:-0.629812 355:-0.979218 356:0.288077 357:-0.397861 358:-0.238572 359:-0.356362 360:-0.903263 361:0.551363 362:-0.678859 363:-0.271913 364:-0.770333 365:0.514604 366:-0.47899 367:-0.483192 368:-0.968464 369:-0.675217 370:-0.760722 371:-0.397712 372:-0.46786 373:0.0658777 374:0.239828 375:-0.0759667 376:0.944532 377:0.00156986 378:0.184601 379:-0.0908043 380:-0.407204 381:-0.863589 382:-0.832012 383:-0.322947 384:-0.204474 385:-0.477469 386:0.131933 387:-0.308101 388:-0.221042 389:0.0511578 390:-0.526738 391:-0.191479 392:-0.739181 393:-0.137386 394:0.148143 395:-0.0607274 396:-0.422505 397:-0.604624 398:-0.440358 399:-0.191528 400:-0.258449 401:-0.804175 402:-0.831526 403:-0.33628 404:-0.63698 405:-0.598495 406:0.540677 407:-0.0771878 408:-0.626905 409:-0.592766 410:-0.275139 411:-0.746002 412:-0.313004 413:-0.411787 414:-0.440358 415:-0.160015 416:-0.604153 417:-0.286087 418:-0.871208 419:-0.392059 420:-0.62594 421:-0.932555 422:-0.429094 423:-0.747276 424:-0.565974 425:-0.468663 426:-0.293379 427:-0.122166 428:-0.307006 429:-0.610928 430:0.0606774 431:-0.25734 432:-0.0899584 433:-0.306178 434:-0.410703 435:-0.73779 436:-0.0727812 437:-0.312691 438:-0.00154202 439:-0.458757 440:-0.913071 441:-0.722318 442:-0.76941 443:-0.495959 444:-0.627185 445:-0.0873639 446:-0.482592 447:1 448:-0.444581 449:0.509735 450:-0.353124 451:0.5886 452:-0.842114 453:-0.0487078 454:0.0619106 455:-0.417863 456:-0.197698 457:-0.179898 458:-0.339927 459:-0.869462 460:0.202387 461:-0.191479 462:-0.332235 463:-0.787817 464:-0.507953 
33.63348947020001 14.05055546023434 5.403235845000687 3.318651261304977 0 58.69919634064578 42.93555263740735 3.570351699970007 9.108205397197057 11.2986745285183 7.15044427645044 4.732261330643603 0:-0.852844 1:-0.425626 2:-0.679408 3:1 4:0.624624 5:-0.650107 6:-1 7:-1 8:-0.0979183 9:-0.0234305 10:-0.851697 11:-0.398612 12:-0.578036 13:-1 14:-0.358816 15:-0.379722 16:-0.870259 17:0.761468 18:-1 19:-0.718208 20:-0.368165 21:-0.759445 22:-1 23:-1 24:-0.557823 25:-1 26:-1 27:-0.360394 28:-0.812793 29:-1 30:-1 31:1 32:0.544491 33:-0.877541 34:-1 35:-0.317361 36:-0.265248 37:-0.521546 38:0.243276 39:-0.23058 40:-0.673435 41:-0.159935 42:-0.733014 43:1 44:0.511465 45:-1 46:-0.578036 47:-1 48:-0.779817 49:-0.612326 50:-0.612326 51:-0.0203313 52:1 53:-0.632624 54:-0.457769 55:-0.531813 56:-1 57:-1 58:-1 59:-0.253793 60:-0.659128 61:1 62:-1 63:-1 64:-0.682216 65:-1 66:-0.795383 67:-0.657594 68:0.120153 69:-0.911162 70:-1 71:-0.510127 72:-1 73:-1 74:-0.629234 75:-1 76:-1 77:-0.652406 78:-1 79:0.363338 80:-1 81:-1 82:-0.485233 83:-0.719978 84:-0.651124 85:-0.96008 86:-0.573596 87:-0.955507 88:-0.831205 89:-0.613861 90:-0.759445 91:0.406546 92:0.599016 93:-1 94:-0.368165 95:0.235399 96:-0.572544 97:-0.626258 98:-0.700231 99:-1 100:0.764307 101:-0.708901 102:-1 103:-0.488189 104:-1 105:-0.16572 106:-0.317361 107:-0.189821 108:-1 109:-0.903727 110:-1 111:-1 112:-0.91034 113:-0.0619363 114:-0.169329 115:0.550696 116:-0.741551 117:-1 118:-0.719978 119:-0.629189 120:-0.387707 121:-1 122:-0.252516 123:-1 124:-0.861518 125:-0.573363 126:-0.555112 127:-0.812455 128:-0.942916 129:-0.265248 130:-0.948851 131:0.122072 132:-0.278335 133:-0.709064 134:-1 135:-0.79896 136:-0.21873 137:-0.612326 138:-0.224652 139:0.188028 140:-0.591794 141:-0.936703 142:-0.19815 143:-0.379722 144:-1 145:-1 146:-1 147:0.037372 148:1 149:-0.454641 150:-0.755869 151:-0.318256 152:0.590677 153:-0.47251 154:-1 155:-0.611747 156:-0.267606 157:-1 158:-1 159:-0.869772 160:-0.472884 161:-0.431901 162:-0.77598 163:-1 164:-0.599075 165:-1 166:-0.418128 167:0.918819 168:-0.332668 169:-0.299946 170:-0.110224 171:-1 172:-0.784023 173:-0.466393 174:-0.65635 175:-0.77276 176:-0.571016 177:-0.777556 178:-0.270801 179:-0.110224 180:-1 181:-0.709064 182:-1 183:-0.483101 184:0.790297 185:-0.398612 186:1 187:-0.898885 188:-0.607053 189:-0.22417 190:-0.358816 191:-0.33945 192:-0.652484 193:-0.892629 194:-1 195:-0.209384 196:0.367222 197:-0.14782 198:-0.0089575 199:-0.743168 200:-0.533493 201:-1 202:-0.755064 203:-0.786798 204:-1 205:-0.777556 206:-1 207:-0.618022 208:-1 209:-0.721925 210:-0.348915 211:-0.83025 212:-1 213:-0.792415 214:-0.89349 215:-0.546399 216:-0.398612 217:0.372786 218:0.363487 219:-0.510127 220:0.163745 221:-0.550303 222:-1 223:-0.987864 224:-0.612326 225:1 226:-1 227:-1 228:-0.875449 229:-0.878368 230:-1 231:-0.450608 232:-0.657369 233:-0.918359 234:-0.0675433 235:-0.828769 236:-0.278335 237:-0.726556 238:-0.66343 239:0.400108 240:0.0337972 241:-0.424991 242:-1 243:0.282367 244:0.705617 245:-0.77276 246:-1 247:-0.839984 248:-0.88877 249:-0.267606 250:-0.930481 251:-0.543459 252:1 253:-0.806163 254:-0.358816 255:-0.265248 256:0.199078 257:-0.23058 258:-1 259:-1 260:-0.84493 261:-0.545521 262:0.0136452 263:-0.0405904 264:-1 265:-0.0815425 266:-0.113048 267:-0.265191 268:-0.659165 269:-0.699306 270:-0.674491 271:-0.417421 272:-0.679967 273:-1 274:-0.741551 275:-1 276:1 277:-1 278:-1 279:-0.311193 280:-0.510127 281:-0.955895 282:-0.673435 283:-0.567987 284:1 285:-0.224652 286:-1 287:-0.19815 288:-0.510127 289:-1 290:-0.591783 291:-0.69948 292:-0.376997 293:0.709823 294:-1 295:-0.830986 296:0.778484 297:-0.816312 298:-0.534502 299:-0.786272 300:-1 301:-0.640304 302:-0.679425 303:-0.682216 304:-1 305:-0.571395 306:-0.930842 307:-1 308:0.807195 309:-1 310:-0.626347 311:0.400108 312:-1 313:-0.804683 314:-0.750799 315:-1 316:-1 317:-1 318:-1 319:-0.0979183 320:0.347732 321:-1 322:-1 323:-0.927587 324:-0.61472 325:-1 326:-0.324821 327:-0.579288 328:-0.317287 329:-1 330:-0.789388 331:-0.630857 332:-0.897743 333:-0.398612 334:-1 335:-0.650107 336:-0.771328 337:-1 338:-1 339:-0.147191 340:-0.0203313 341:-0.612085 342:-0.332668 343:-0.515678 344:-1 345:-1 346:-0.558761 347:-0.775991 348:-0.0308151 349:-1 350:-1 351:-0.792526 352:-0.756212 353:-0.709064 354:-0.786272 355:-0.973834 356:-1 357:-0.44385 358:-0.156072 359:-0.224652 360:-0.55352 361:-1 362:-0.66631 363:-0.22417 364:-0.848507 365:-0.100692 366:-1 367:-0.789388 368:-0.963613 369:-0.250098 370:0.242863 371:-0.536473 372:-0.612085 373:0.846154 374:-1 375:-1 376:-1 377:-0.183673 378:-0.626973 379:-0.550303 380:-0.43999 381:-0.860046 382:-0.938771 383:-0.360394 384:0.22449 385:-0.483101 386:-0.159935 387:0.0893855 388:-0.229439 389:-1 390:-0.106188 391:-0.626616 392:-1 393:-0.626616 394:0.363438 395:-1 396:-0.359934 397:0.597893 398:-0.741551 399:-1 400:-1 401:0.356859 402:-0.708302 403:0.149171 404:-1 405:-0.0734508 406:-0.438445 407:-1 408:0.292247 409:-0.743527 410:-0.877541 411:0.119311 412:-1 413:-0.418128 414:0.0337972 415:0.454681 416:-0.750799 417:-0.418128 418:-1 419:-0.0979183 420:-0.454641 421:0.273836 422:-1 423:1 424:-0.554699 425:-1 426:-0.510511 427:-0.679967 428:-1 429:-0.510127 430:-1 431:-0.755064 432:-0.814617 433:-0.199042 434:-0.795892 435:-0.35886 436:-1 437:-0.859989 438:-0.699306 439:-0.659128 440:-1 441:-0.871763 442:-1 443:-0.612085 444:-1 445:0.18511 446:-0.622824 447:-0.644809 448:-0.572544 449:-1 450:0.493895 451:-0.119639 452:-0.950282 453:0.550696 454:-0.0405904 455:-1 456:-0.786272 457:-0.545521 458:1 459:-0.589106 460:-0.0202544 461:-1 462:-0.743041 463:-0.938771 464:-0.86366 
142.5033423991414 102.3416759535283 15.35274141898806 87.08716089161589 0 139.3839542905088 43.09375796779277 0 86.10849386198834 14.7232292605536 0 49.46196538610657 0:-0.716819 1:-0.201767 2:-0.434443 3:-0.144729 4:0.129137 5:-0.803521 6:-0.464765 7:-0.979903 8:-0.565921 9:-0.373457 10:-0.548056 11:-0.421357 12:-0.154179 13:-0.580007 14:0.131114 15:-0.204175 16:-0.802312 17:-0.364291 18:-0.711376 19:-0.638367 20:0.148373 21:-0.691288 22:-0.765795 23:-0.378527 24:-0.716553 25:-0.48582 26:-0.85588 27:-0.0254203 28:-0.24949 29:-0.815334 30:-0.84251 31:-0.243956 32:-0.475542 33:-0.68569 34:-0.383066 35:-0.479926 36:-0.509067 37:-0.808158 38:-0.601116 39:-0.0334566 40:-0.777371 41:-0.281278 42:-0.571795 43:-0.422564 44:-0.326731 45:-0.526102 46:-0.45866 47:-0.630846 48:-0.152576 49:0.0571571 50:-0.378231 51:-0.293037 52:-0.631177 53:-0.705471 54:1 55:-0.39916 56:-0.280312 57:-0.845798 58:-0.588711 59:-0.162225 60:-0.535234 61:-0.278205 62:-0.812453 63:-0.595673 64:-0.210022 65:-0.980563 66:-0.573452 67:-0.368525 68:-0.460986 69:-0.665205 70:-0.933581 71:-0.332077 72:-0.970805 73:-0.567907 74:-0.405348 75:-0.517733 76:0.128331 77:-0.107843 78:-0.423159 79:-0.726895 80:-0.703264 81:-0.567907 82:-0.628444 83:-0.708131 84:-0.599016 85:-0.980808 86:-0.692224 87:-0.757401 88:-0.187838 89:-0.0712871 90:-0.691288 91:-0.323235 92:-0.282083 93:-0.873162 94:-0.45943 95:0.0896852 96:-0.314427 97:-0.640153 98:-0.663336 99:-0.893753 100:-0.151097 101:-0.719724 102:-0.653453 103:-0.425197 104:-0.461138 105:-0.581924 106:-0.534624 107:-0.415217 108:0.160702 109:-0.891879 110:-0.455021 111:-0.383066 112:-0.956894 113:-0.247745 114:-0.134185 115:-0.626988 116:-0.502651 117:-0.227615 118:-0.416263 119:-0.910863 120:-0.705471 121:-0.588711 122:-0.880211 123:-0.673256 124:-0.222725 125:-0.65787 126:-0.500642 127:-0.308247 128:-0.862705 129:-0.410786 130:-0.901571 131:-0.177353 132:-0.228373 133:-0.766878 134:-0.887775 135:-0.731346 136:-0.436084 137:0.0879722 138:-0.834327 139:0.0859797 140:-0.319133 141:-0.935702 142:-0.356978 143:-0.502584 144:-0.884418 145:-0.725096 146:-0.333333 147:-0.600745 148:-0.602277 149:-0.453417 150:-0.373396 151:-0.207254 152:-0.143627 153:0.0152161 154:-0.991572 155:-0.501742 156:-0.373396 157:-0.981088 158:-0.48582 159:-0.874614 160:-0.704004 161:-0.453314 162:-0.676607 163:-0.73262 164:-0.614238 165:-0.820206 166:-0.471093 167:-0.521389 168:-0.464994 169:-0.775444 170:0.534008 171:-0.571848 172:-0.861553 173:-0.828972 174:-0.50391 175:-0.198252 176:-0.690362 177:0.070298 178:-0.844188 179:0.141594 180:-0.715521 181:-0.39351 182:-0.355064 183:-0.212392 184:-0.582264 185:-0.421228 186:-0.198168 187:-0.513482 188:-0.685139 189:-0.533507 190:-0.211673 191:-0.187862 192:-0.562104 193:-0.956983 194:-0.68159 195:-0.56746 196:-0.404783 197:-0.562548 198:-0.713868 199:-0.752716 200:-0.875399 201:0.245994 202:-0.37133 203:-0.247779 204:-0.917058 205:-0.286468 206:-0.982722 207:-0.264936 208:-0.410897 209:-0.554011 210:-0.321369 211:-0.891186 212:-0.800399 213:-1 214:-0.803571 215:0.0392124 216:-0.131843 217:-0.559564 218:-0.535234 219:-0.724918 220:-0.440134 221:-0.278755 222:-0.751955 223:-0.945497 224:-0.347167 225:-0.518877 226:-0.931666 227:-0.570406 228:-0.846866 229:-0.925867 230:-0.584961 231:0.321712 232:-0.780365 233:-0.86906 234:-0.252441 235:-0.876406 236:-0.575636 237:-0.517616 238:-0.811003 239:0.167474 240:-0.25381 241:-0.769628 242:-0.610051 243:-0.588574 244:0.367774 245:-0.817917 246:-0.813254 247:-0.871782 248:-0.812692 249:-0.373396 250:-0.832799 251:-0.414106 252:0.0826923 253:-0.595924 254:-0.245924 255:-0.391161 256:0.490392 257:0.00780929 258:-0.569327 259:-0.710486 260:-0.552286 261:-0.635543 262:-0.13277 263:-0.199918 264:-0.223681 265:-0.36179 266:-0.596892 267:-0.528654 268:-0.453354 269:-0.324981 270:-0.530099 271:-0.766408 272:-0.61514 273:-0.743358 274:-0.378396 275:-0.490613 276:-0.74335 277:-0.71003 278:-0.131843 279:-0.613335 280:-0.0180562 281:-0.978796 282:-0.594097 283:-0.168651 284:0.0425214 285:-0.336812 286:-0.197148 287:-0.549987 288:-0.175067 289:-0.533756 290:-0.181735 291:-0.855519 292:0.298722 293:-0.280175 294:-0.615452 295:-0.756013 296:-0.174417 297:-0.656331 298:-0.664006 299:-0.622962 300:-0.94694 301:-0.423104 302:-0.627228 303:-0.0572418 304:-0.0671115 305:-0.725018 306:-0.866915 307:-0.673256 308:-0.69406 309:-0.62897 310:-0.280958 311:-0.416263 312:-0.277908 313:-0.530237 314:-0.800319 315:-0.528654 316:-0.506013 317:-0.194349 318:-0.326152 319:-0.469545 320:-0.405616 321:0.306422 322:-0.588711 323:-0.988395 324:-0.196839 325:-0.626905 326:-0.431508 327:0.0798274 328:-0.835886 329:-0.401149 330:-0.223167 331:-0.467108 332:-0.896126 333:-0.469545 334:-0.770771 335:-0.298643 336:-0.853415 337:-0.494955 338:-0.618716 339:-0.00833675 340:-0.78397 341:0.306478 342:-0.322116 343:0.320708 344:-0.505045 345:-0.704653 346:0.380003 347:-0.568926 348:-0.533797 349:-0.100928 350:-0.816716 351:-0.633994 352:0.172996 353:-0.533383 354:-0.862995 355:-0.99371 356:-0.595673 357:-0.554011 358:-0.0186638 359:-0.409294 360:-0.570406 361:-0.625636 362:-0.554082 363:-0.595673 364:-0.732751 365:-0.327056 366:-0.686584 367:-0.45943 368:-0.982506 369:-0.617358 370:-0.80069 371:-0.516862 372:-0.128932 373:-0.407495 374:-0.520823 375:-0.346761 376:-0.018315 377:-0.279958 378:0.0172166 379:-0.639666 380:-0.490966 381:-0.719419 382:-0.764346 383:-0.487222 384:-0.361852 385:-0.75116 386:0.661461 387:0.222905 388:0.0506298 389:-0.506013 390:-0.378915 391:-0.0416467 392:-0.903411 393:-0.460986 394:-0.489876 395:-0.331999 396:-0.384142 397:0.537606 398:-0.378396 399:-0.461138 400:-0.878958 401:-0.595924 402:-0.766081 403:-0.170534 404:-0.915182 405:-0.405662 406:-0.279338 407:-0.81547 408:-0.0881378 409:-0.691574 410:-0.410786 411:-0.641041 412:-0.291658 413:-0.486759 414:-0.0467197 415:-0.533383 416:-0.880192 417:-0.580007 418:-0.856898 419:-0.710486 420:-0.693935 421:-0.713998 422:-0.647655 423:-0.338462 424:-0.78577 425:-0.640784 426:-0.136492 427:-0.640784 428:-0.563648 429:0.139268 430:0.404818 431:-0.646412 432:-0.167439 433:-0.700154 434:-0.639932 435:-0.400233 436:-0.505681 437:0.122779 438:-0.131843 439:-0.507921 440:-0.951678 441:-0.876531 442:-0.861546 443:-0.595673 444:-0.948278 445:-0.303115 446:-0.364845 447:-0.48725 448:-0.245924 449:-0.680498 450:-0.401006 451:-0.294018 452:-0.816617 453:0.243539 454:0.0770808 455:-0.568926 456:-0.862995 457:-0.416752 458:0.237363 459:-0.696887 460:-0.0965615 461:-0.580661 462:0.112831 463:-0.705393 464:-0.803181 
138.243156468356 22.72411229076329 0 149.7451412065062 49.29075019294007 118.3008174278671 196.0919759941747 41.83639214783326 191.6662594343104 0 47.97538727409754 0 0:-0.823413 1:-0.059892 2:-0.23058 3:-0.563533 4:-0.48785 5:-0.350903 6:-0.575282 7:-0.986334 8:0.148419 9:-0.619388 10:-0.716798 11:-0.245567 12:-0.44739 13:-0.206266 14:-0.160296 15:-0.475547 16:-0.674401 17:-0.447565 18:-0.411222 19:-0.385116 20:-0.44836 21:-0.579954 22:-0.592845 23:0.38953 24:0.158163 25:-0.0380189 26:-0.705611 27:-0.197622 28:-0.183007 29:-0.748749 30:-0.678216 31:-0.42326 32:-0.67284 33:-0.692755 34:0.329223 35:-0.366809 36:-0.518958 37:-0.752032 38:-0.38952 39:-0.300452 40:-0.848545 41:-0.144498 42:0.0487763 43:-0.0835897 44:-0.432016 45:0.289153 46:-0.677757 47:-0.907933 48:-0.447565 49:0.0576541 50:-0.301938 51:-0.492268 52:-0.803602 53:-0.585839 54:-0.11227 55:-0.387155 56:0.189478 57:-0.579954 58:-0.487053 59:-0.918546 60:-0.386212 61:-0.0996795 62:-0.489272 63:-0.534502 64:-0.514565 65:-0.984108 66:-0.419465 67:-0.458297 68:-0.266635 69:-0.912756 70:0.0398512 71:-0.51892 72:-0.960309 73:-0.331763 74:-0.676292 75:-0.212413 76:-0.406724 77:0.516934 78:-0.495306 79:-0.702425 80:-0.394065 81:0.229392 82:-0.550569 83:-0.358463 84:-0.86045 85:-0.991299 86:-0.604483 87:-0.859221 88:-0.66847 89:-0.410396 90:-0.606168 91:-0.708412 92:0.221402 93:-0.89805 94:-0.0808694 95:0.347852 96:-0.137142 97:0.386679 98:0.0465027 99:-0.855291 100:-0.441755 101:-0.0789326 102:-0.38134 103:0.4521 104:-0.297433 105:-0.544889 106:-0.311016 107:-0.204363 108:-0.379722 109:-0.936929 110:0.075147 111:0.189478 112:-0.93149 113:-0.334937 114:0.0878594 115:-0.598161 116:-0.605202 117:-0.243176 118:-0.0224376 119:-0.757309 120:-0.679253 121:-0.603507 122:-0.143747 123:-0.460276 124:-0.697825 125:-0.418023 126:0.213461 127:-0.764727 128:-0.906543 129:-0.438888 130:-0.983245 131:-0.300452 132:-0.212645 133:-0.270048 134:-0.617836 135:-0.524722 136:-0.44585 137:-0.154076 138:-0.548708 139:-0.624096 140:-0.625916 141:-0.988477 142:0.0501157 143:-0.357058 144:-0.907098 145:-0.438888 146:-0.337023 147:-0.683203 148:-0.72945 149:-0.717357 150:-0.467293 151:-0.702393 152:-0.628114 153:-0.562589 154:-0.988538 155:0.228472 156:-0.307355 157:-0.952795 158:-0.23058 159:-0.772602 160:-0.511066 161:-0.801602 162:-0.739314 163:0.334759 164:-0.190696 165:-0.61288 166:-0.174686 167:-0.604483 168:-0.223442 169:-0.694489 170:-0.320405 171:-0.085044 172:-0.7879 173:-0.30118 174:-0.699967 175:0.165331 176:-0.695861 177:-0.101954 178:-0.681832 179:-0.490375 180:-0.883933 181:-0.301753 182:-0.184899 183:0.240888 184:-0.591654 185:-0.322025 186:-0.51685 187:-0.536687 188:-0.18539 189:-0.513366 190:-0.207015 191:0.177135 192:-0.940426 193:-0.953128 194:-0.742823 195:-0.908663 196:-0.190184 197:-0.553589 198:-0.686424 199:-0.551531 200:-0.915072 201:0.0320485 202:-0.224996 203:-0.558016 204:-0.64283 205:0.0922572 206:-1 207:0.0837414 208:-0.572303 209:0.00142602 210:0.172371 211:-0.851795 212:-0.218762 213:-0.971657 214:-0.808214 215:-0.710144 216:-0.114109 217:-0.419646 218:-0.646673 219:-0.51892 220:-0.0477434 221:-0.0677429 222:-0.437603 223:-0.947037 224:-0.513668 225:-0.694507 226:-0.767391 227:-0.512879 228:-0.929794 229:-0.962856 230:0.2547 231:0.0790632 232:-0.252361 233:-0.804061 234:-0.38952 235:-0.897261 236:-0.527525 237:-0.194391 238:-0.559223 239:-0.297433 240:-0.379722 241:-0.278658 242:-0.137904 243:-0.545417 244:-0.558016 245:-0.305754 246:-0.491981 247:-0.668274 248:-0.732977 249:-0.467293 250:-0.764884 251:-0.128183 252:-0.0996795 253:-0.280815 254:-0.113851 255:-0.719444 256:-0.116833 257:-0.566297 258:-0.440689 259:-0.0813416 260:-0.543141 261:-0.553678 262:0.0690925 263:-0.741779 264:-0.349725 265:-0.649298 266:-0.62911 267:-0.27838 268:-0.181997 269:-0.114109 270:-0.662598 271:-0.761554 272:-0.720587 273:-0.563442 274:0.0715706 275:-0.345397 276:-0.68361 277:-0.492883 278:-0.0813416 279:-0.855048 280:-0.626001 281:-0.995194 282:-0.714988 283:0.319856 284:-0.363462 285:-0.703943 286:-0.33262 287:-0.365716 288:-0.492228 289:0.524058 290:-0.287453 291:-0.541129 292:0.257588 293:0.0494588 294:-0.103161 295:-0.83402 296:-0.662927 297:-0.726117 298:-0.695188 299:-0.230306 300:-0.951892 301:-0.371916 302:-0.589006 303:-0.254431 304:-0.365385 305:-0.726117 306:-0.932083 307:-0.174562 308:-0.715168 309:0.364203 310:-0.592335 311:-0.266559 312:-0.201803 313:-0.12633 314:-0.401917 315:-0.305071 316:-0.0529528 317:-0.345798 318:0.171155 319:-0.376638 320:-0.338229 321:-0.3753 322:-0.463762 323:-0.992109 324:-0.117313 325:-0.464215 326:-0.834235 327:0.193635 328:-0.255142 329:0.303494 330:-0.44836 331:0.208235 332:-0.791728 333:0.0828836 334:-0.777313 335:-0.408321 336:-0.800352 337:-0.313347 338:-0.296192 339:-0.604483 340:-0.813015 341:-0.788387 342:-0.223442 343:0.215151 344:-0.562413 345:-0.770398 346:-0.0852779 347:0.124354 348:-0.619284 349:0.325547 350:-0.00146628 351:-0.637718 352:-0.627754 353:-0.603133 354:-0.487053 355:-0.981449 356:-0.301504 357:-0.0898396 358:-0.631593 359:-0.428926 360:-0.683314 361:-0.592093 362:-0.441711 363:-0.513366 364:-0.644574 365:-0.0514988 366:-0.688319 367:-0.402457 368:-0.936462 369:-0.687628 370:-0.525428 371:0.0114396 372:-0.682457 373:0.543984 374:0.0186692 375:-0.534502 376:-0.0204082 377:-0.153846 378:0.627929 379:-0.116748 380:-0.205696 381:-0.824384 382:-0.766151 383:-0.208965 384:0.0353218 385:-0.210404 386:0.161012 387:-0.524581 388:0.261052 389:0.130497 390:-0.187166 391:-0.0220201 392:-0.926087 393:-0.144567 394:-0.380044 395:0.135802 396:-0.0745718 397:-0.128183 398:-0.0692512 399:0.00843655 400:-0.785804 401:-0.32331 402:-0.602094 403:-0.561326 404:-0.783376 405:-0.258761 406:-0.0806335 407:-0.748935 408:0.607356 409:-0.650144 410:-0.545647 411:-0.494055 412:0.260728 413:0.30138 414:-0.407886 415:-0.333458 416:-0.320128 417:-0.365162 418:-0.805094 419:-0.278335 420:-0.657927 421:-0.81933 422:-0.544571 423:-0.768109 424:-0.708414 425:-0.214278 426:0.602134 427:-0.196841 428:-0.511129 429:-0.144921 430:-0.383445 431:-0.144921 432:-0.231373 433:-0.0385076 434:-0.398665 435:-0.417083 436:-0.565618 437:-0.465267 438:-0.34387 439:-0.609527 440:-0.989062 441:-0.776079 442:-0.91052 443:-0.513366 444:-0.911865 445:0.163839 446:-0.423839 447:-0.147541 448:-0.277161 449:-0.320779 450:-0.347857 451:-0.375847 452:-0.783026 453:-0.196322 454:-0.232472 455:-0.340034 456:-0.696945 457:-0.752076 458:-0.28315 459:-0.56066 460:-0.385461 461:-0.0220201 462:0.0093889 463:-0.826281 464:-0.538892 
84.30272091399308 42.71467548614363 21.25169050294222 52.44931915450935 0 65.13809786079069 92.5424224800053 10.33380607796319 68.49699283041248 18.29194666559108 3.931373681929233 23.1731276963351 0:-0.827563 1:-1 2:-0.624332 3:-0.218803 4:0.0576255 5:-0.794998 6:-0.782769 7:-1 8:-1 9:-0.509569 10:-0.91311 11:-1 12:-0.0110901 13:-1 14:-0.248664 15:-0.81829 16:-0.0117265 17:-0.48398 18:0.405073 19:-0.339595 20:-0.506413 21:-1 22:-0.904945 23:-0.0267968 24:-1 25:-0.624332 26:0.0538048 27:-0.250513 28:0.316213 29:-0.850103 30:-1 31:-0.163004 32:-0.574191 33:-1 34:0.127004 35:1 36:-1 37:-0.859837 38:-1 39:-0.849733 40:-0.521666 41:0.312511 42:-0.374294 43:-1 44:-0.212832 45:0.483365 46:-0.340727 47:-0.820194 48:-0.74199 49:-0.0914513 50:-0.545726 51:-0.713007 52:-0.765656 53:-1 54:0.270768 55:-0.451381 56:0.502672 57:-1 58:-0.248664 59:-0.625256 60:-0.400852 61:0.464744 62:-1 63:-0.772722 64:-0.813811 65:-1 66:-0.520462 67:0.00307287 68:0.31259 69:-0.687699 70:-1 71:0.722091 72:-1 73:-0.712985 74:-0.348307 75:-1 76:-1 77:-1 78:-0.698896 79:-0.600612 80:-0.457567 81:0.148061 82:-0.6984 83:-0.17968 84:-0.931865 85:-1 86:-0.750171 87:-0.739319 88:-0.406622 89:0.357426 90:-1 91:-0.670363 92:-0.250513 93:-1 94:-1 95:-0.638091 96:-0.248664 97:-1 98:0.0538048 99:-1 100:-1 101:-0.658892 102:-0.367146 103:-0.400262 104:-0.343744 105:0.344341 106:1 107:-0.0506362 108:-0.0914513 109:-0.887188 110:-1 111:-0.248664 112:-0.684809 113:-1 114:-0.513312 115:-0.545726 116:-0.848575 117:-0.322712 118:-1 119:-0.130972 120:-0.856504 121:-0.499109 122:-1 123:-1 124:-0.0263648 125:1 126:0.303294 127:-0.780236 128:-0.799327 129:0.148128 130:-0.910095 131:-0.436498 132:-0.436237 133:-0.318165 134:-0.72647 135:-0.764423 136:-0.542256 137:-0.772863 138:-0.394301 139:0.253065 140:-0.617333 141:-0.901105 142:-0.530198 143:0.817296 144:-0.846451 145:-0.856504 146:-1 147:-0.0275303 148:-0.625045 149:-0.201189 150:-1 151:-0.400852 152:-0.733722 153:0.236356 154:-0.969186 155:0.364858 156:-1 157:-1 158:-0.624332 159:-1 160:-1 161:-1 162:-0.387392 163:-0.348307 164:-1 165:-1 166:-0.772722 167:-0.00068334 168:0.0426351 169:-0.671872 170:-0.478682 171:-0.106549 172:-1 173:-1 174:-0.798656 175:-1 176:-0.748659 177:-0.739341 178:-0.715176 179:-1 180:-1 181:-1 182:0.00994475 183:-0.394301 184:-0.0464267 185:-0.765099 186:-0.330403 187:-0.763028 188:-0.0790932 189:-0.772722 190:-0.499109 191:-0.74199 192:-0.650956 193:-0.245027 194:-0.854632 195:-0.237048 196:-0.771128 197:-1 198:-0.419351 199:-0.39809 200:-1 201:-0.208315 202:-0.42597 203:-0.750171 204:-0.697167 205:-0.739341 206:-0.936833 207:-0.104799 208:-1 209:-0.0224599 210:0.144407 211:-0.801088 212:-0.63513 213:-1 214:-0.625576 215:-0.0127939 216:-0.647648 217:-0.195688 218:-0.600568 219:-1 220:-0.318165 221:-0.473047 222:-1 223:-0.786671 224:0.362823 225:0.28902 226:-1 227:-0.738409 228:-0.854052 229:-0.401322 230:-1 231:-0.356225 232:-0.598506 233:-0.904333 234:-0.271568 235:-0.398057 236:-1 237:-0.0387379 238:-0.802805 239:-0.671872 240:-0.394301 241:-0.326207 242:-1 243:-0.624332 244:-1 245:-1 246:-1 247:-0.812494 248:-0.674153 249:-0.427856 250:-0.429679 251:0.604917 252:0.171795 253:-0.0914513 254:-0.248664 255:0.291624 256:-0.648732 257:-0.398931 258:-1 259:0.0570547 260:-1 261:-0.733722 262:0.583712 263:-0.325379 264:-0.563619 265:-0.641252 266:-0.826779 267:-1 268:-0.600612 269:-1 270:-0.809285 271:-0.829334 272:-0.624987 273:-0.249974 274:-0.0914513 275:-0.173038 276:-0.648484 277:-0.697451 278:-0.295297 279:-0.596367 280:0.722091 281:-1 282:0.148106 283:-0.493769 284:-0.609402 285:-0.242876 286:-0.674153 287:-0.765099 288:0.435076 289:-0.318165 290:-0.760827 291:-0.295704 292:-1 293:0.252226 294:-1 295:-0.80195 296:0.425931 297:-0.928252 298:-0.727266 299:-0.499109 300:-0.870676 301:-1 302:-0.436527 303:-1 304:-0.282575 305:-0.856504 306:-0.837922 307:-1 308:1 309:-1 310:-0.562156 311:-0.343744 312:-0.670334 313:-0.542256 314:-1 315:-0.712985 316:-0.343744 317:-0.24047 318:-0.453022 319:-1 320:0.579266 321:-0.22597 322:-0.749555 323:-0.957573 324:-0.548531 325:-0.848575 326:-0.604415 327:-0.507012 328:1 329:-0.56247 330:-0.506413 331:-0.56744 332:-0.800293 333:-0.647648 334:-0.521654 335:-0.589997 336:-0.464087 337:-0.473047 338:-1 339:-0.750171 340:-0.713007 341:-0.318165 342:-0.478682 343:0.135051 344:-0.638378 345:-1 346:-0.482959 347:-1 348:-0.318588 349:-1 350:0.340176 351:-0.756883 352:1 353:-1 354:-0.749555 355:-1 356:-0.772722 357:-0.348307 358:-0.752773 359:-0.772863 360:-0.738409 361:-1 362:0.173191 363:-1 364:-0.822481 365:-1 366:-0.823824 367:-0.506413 368:-1 369:-0.680461 370:-0.635905 371:-0.456841 372:-0.318165 373:-0.278895 374:-0.56247 375:-0.318165 376:-0.521716 377:-0.521716 378:-1 379:-0.473047 380:-1 381:-0.918001 382:-0.784755 383:-0.500342 384:-0.282575 385:-1 386:-0.343744 387:-0.234078 388:-0.548531 389:-0.671872 390:0.396486 391:-0.56247 392:-0.911806 393:-0.56247 394:-0.201165 395:0.524858 396:-0.812494 397:-0.465028 398:-1 399:-0.671872 400:-0.645977 401:-0.0914513 402:-0.31638 403:-0.663352 404:-1 405:-0.276183 406:-0.341973 407:-0.400852 408:0.817097 409:-1 410:-0.713007 411:-0.625256 412:-0.60183 413:-1 414:-0.0914513 415:-0.659082 416:-0.415974 417:-0.318165 418:-1 419:-1 420:-1 421:0.84105 422:-1 423:0.0254808 424:-0.86955 425:-0.624987 426:-1 427:-0.812494 428:-0.437481 429:-0.712985 430:-0.337801 431:-1 432:-0.565538 433:-0.687147 434:-1 435:0.502706 436:-0.397991 437:-0.671872 438:-1 439:-0.800284 440:-0.94119 441:-1 442:-0.747109 443:-0.772722 444:-0.810903 445:-0.537098 446:-0.779014 447:-0.167577 448:0.252226 449:-1 450:-0.562365 451:-1 452:-0.708704 453:-1 454:-0.625256 455:-0.475014 456:-0.749555 457:-0.201165 458:0.0043956 459:-0.325818 460:-0.712985 461:-0.56247 462:-0.397793 463:-0.928252 464:-0.840238 
-116.8094219361632 100.1567050996144 1.784679045317215 36.57755957110505 16.06763031264639 110.3622845582606 85.11184588800934 2.567888217220282 20.66980872138296 17.03972478093476 13.79742946323242 6.079584208206453 0:-0.00443354 1:-0.514237 2:-0.457871 3:-0.811966 4:0.679241 5:-0.851968 6:0.0973262 7:-1 8:-0.237086 9:-0.646038 10:-0.811864 11:-1 12:-0.821477 13:-0.0156658 14:-0.457871 15:-0.475348 16:-0.890303 17:0.303317 18:-0.493082 19:-0.523483 20:-0.287431 21:0.0171164 22:-0.794186 23:-1 24:0.121882 25:-0.457665 26:-1 27:-0.729397 28:-0.525021 29:-0.675441 30:-0.501323 31:-0.516667 32:-0.615886 33:-0.896381 34:0.0846691 35:-0.855596 36:-0.378601 37:-0.595307 38:0.577207 39:-0.132429 40:-0.516747 41:-0.526476 42:-0.774089 43:0.0148718 44:-0.431801 45:-1 46:0.0705978 47:-0.740422 48:-0.255046 49:-0.0164016 50:-0.508201 51:0.139179 52:-0.661688 53:-0.585682 54:-0.541189 55:-1 56:0.626798 57:-0.796453 58:-0.638581 59:0.171928 60:0.153065 61:-0.788462 62:-0.406152 63:0.148079 64:-0.462416 65:-0.979474 66:-0.653987 67:-0.710492 68:-0.368597 69:-0.661902 70:0.402232 71:-0.585806 72:-0.923066 73:0.0356414 74:-0.843137 75:-0.745567 76:-0.729397 77:-0.118093 78:-0.348048 79:-0.135241 80:0.95727 81:-0.792746 82:-0.564758 83:-0.881529 84:-0.901674 85:-0.966221 86:-0.819598 87:-0.962352 88:-0.714564 89:0.632673 90:-1 91:-0.0484176 92:-0.188602 93:-0.939162 94:0.246659 95:0.30588 96:-0.0963146 97:-1 98:-0.239431 99:-1 100:-0.254015 101:-0.507744 102:-0.086377 103:0.298556 104:-0.763059 105:-0.382713 106:0.0101739 107:-0.314983 108:-0.562956 109:-0.837201 110:-0.712481 111:-0.72873 112:-0.924134 113:-0.206855 114:-0.297657 115:-0.180417 116:-0.453612 117:-0.022354 118:-0.526476 119:-0.843119 120:-0.689301 121:-0.638581 122:-0.683757 123:-0.753823 124:-0.648646 125:-0.458772 126:-0.623841 127:-0.841428 128:-0.806865 129:-0.585682 130:-0.632316 131:-0.864365 132:-0.389668 133:-0.753823 134:-0.802484 135:-0.773272 136:-0.00888945 137:-0.508201 138:0.311465 139:0.708019 140:-0.930919 141:-0.714514 142:-0.322025 143:-1 144:-0.778328 145:-0.792919 146:-0.188602 147:0.403644 148:-0.458797 149:-0.538717 150:-0.793427 151:0.00884956 152:0.153095 153:-0.553933 154:-1 155:-0.343454 156:-0.380595 157:-1 158:0.0846691 159:-0.669588 160:-0.554317 161:-0.0391843 162:-0.81054 163:0.88164 164:-0.321768 165:-0.526215 166:-0.179908 167:-0.459068 168:-0.811778 169:-0.763238 170:-0.43562 171:-0.0327468 172:-0.634778 173:-0.774243 174:-0.564049 175:0.537363 176:-1 177:0.693141 178:-1 179:-0.247398 180:-0.399636 181:-0.508019 182:-0.271087 183:-1 184:-0.724778 185:0.186584 186:0.449817 187:-0.315919 188:-0.667506 189:-0.507895 190:-0.0963146 191:-0.255046 192:-0.706139 193:-1 194:0.259006 195:-0.449413 196:-0.669713 197:-0.279362 198:-0.580967 199:0.0859401 200:-1 201:-0.142919 202:0.449835 203:0.442394 204:-0.927108 205:-0.811778 206:-1 207:-1 208:-0.792746 209:-0.529768 210:0.101419 211:-0.569314 212:-0.736527 213:-1 214:-0.909944 215:-0.780759 216:0.525829 217:-0.564624 218:0.29728 219:-1 220:-1 221:-0.619487 222:-0.418658 223:-1 224:0.147366 225:-0.746298 226:-1 227:-0.4336 228:-0.982435 229:-0.958864 230:-0.756727 231:-0.070611 232:-0.130683 233:-0.930919 234:-0.736999 235:-0.927556 236:-0.593215 237:0.156179 238:-0.857605 239:0.657512 240:-0.12558 241:-0.270549 242:-0.742891 243:-0.186601 244:-0.278666 245:-0.231173 246:-0.507895 247:-0.729408 248:-0.858895 249:-0.380595 250:-0.529679 251:-0.806848 252:-0.365705 253:-0.672217 254:0.265105 255:-0.48222 256:-0.493082 257:-1 258:-0.380595 259:-1 260:-0.868787 261:-0.615732 262:1 263:-0.0804428 264:0.259967 265:-0.611618 266:-0.499858 267:-0.792746 268:0.153157 269:0.0173477 270:-0.449348 271:-0.260947 272:-0.729408 273:-0.864601 274:-1 275:-0.701425 276:-0.91539 277:-0.126448 278:0.0173477 279:-0.66714 280:-0.378552 281:-1 282:-0.516747 283:-0.269454 284:-0.577137 285:-0.453612 286:-0.05918 287:-0.321768 288:0.864343 289:-0.507646 290:-0.482141 291:-0.745714 292:-1 293:-0.819153 294:-0.420983 295:-0.571181 296:0.266455 297:-0.689301 298:-0.507945 299:-0.638581 300:-1 301:-0.695642 302:-0.864475 303:-0.596863 304:-0.223312 305:-0.89646 306:-0.941482 307:-1 308:-0.830234 309:-0.216978 310:-0.683832 311:-0.0525938 312:0.18954 313:-0.504445 314:-0.156869 315:0.0356414 316:-1 317:-0.862886 318:0.579294 319:-0.491519 320:0.139957 321:-0.441355 322:-0.819153 323:-1 324:-0.0224747 325:-0.890656 326:-0.857174 327:-0.288565 328:-0.71116 329:-0.684059 330:-0.64385 331:-0.687648 332:-0.798239 333:0.0173477 334:-0.309433 335:-0.704161 336:-1 337:0.140963 338:-1 339:0.442394 340:-1 341:-0.672013 342:0.128761 343:-0.181 344:-0.738872 345:-1 346:0.492575 347:-0.431648 348:-0.672217 349:0.975442 350:-0.355327 351:-0.4736 352:-0.381466 353:-0.75401 354:-0.457734 355:-0.98893 356:-0.835882 357:-1 358:-0.286178 359:-0.180417 360:-0.7168 361:0.185385 362:-0.247487 363:-0.507895 364:-0.679728 365:-0.239431 366:0.017155 367:-0.64385 368:-0.969211 369:-0.538784 370:-0.562077 371:-0.803892 372:-0.179908 373:0.0406312 374:-0.0526568 375:-0.507895 376:0.0355835 377:-0.309785 378:-0.369201 379:-0.23955 380:-0.684336 381:-0.763289 382:-0.74111 383:-0.63947 384:-0.482339 385:-0.562956 386:-0.526476 387:-0.262849 388:-0.348481 389:-0.289535 390:-0.747899 391:-0.684059 392:-1 393:-0.684059 394:0.153095 395:-0.77978 396:-0.458611 397:-0.613989 398:-0.12558 399:-0.526476 400:-0.744553 401:-0.672217 402:-0.876589 403:-0.51418 404:-0.776251 405:-0.216393 406:-0.050396 407:-1 408:-0.12558 409:-0.67464 410:-0.689301 411:-0.864699 412:-0.712481 413:-0.508019 414:-0.781312 415:-0.261843 416:-0.578594 417:-0.0156658 418:-0.811105 419:0.0173477 420:-0.0776088 421:-0.533219 422:-0.628503 423:-0.471474 424:-0.529294 425:-0.458611 426:-0.172262 427:-0.729408 428:-1 429:0.242895 430:0.672523 431:0.657089 432:-0.686512 433:-0.0966969 434:-0.482141 435:-0.367491 436:-0.782809 437:-1 438:-0.745567 439:-0.423358 440:-1 441:-0.783148 442:-1 443:-0.672013 444:-0.863453 445:0.670296 446:-1 447:-0.699454 448:0.0845321 449:0.263326 450:-0.368446 451:-0.255643 452:-0.789782 453:-0.344433 454:-0.729397 455:-0.621195 456:-0.276887 457:-0.423452 458:-0.0333333 459:-0.791498 460:-0.378552 461:-0.684059 462:-0.565475 463:-0.689301 464:-0.769446 
-208.5762284247755 122.3149822541978 0 102.9525944654587 32.86002893537878 100.1909608316856 90.14677881629818 0 122.7152706367504 0 0 22.07812183776302 0:-0.778511 1:-0.654148 2:-0.228113 3:-0.598575 4:-0.565378 5:-0.526074 6:-0.776827 7:-1 8:-0.818813 9:-0.874083 10:-0.464303 11:-0.456823 12:-0.682445 13:-0.562104 14:-0.324291 15:-0.439761 16:-0.94145 17:0.25928 18:-0.729439 19:-0.321532 20:-0.429459 21:-0.565459 22:-0.0965628 23:1 24:0.597506 25:-0.0832306 26:0.895081 27:0.155392 28:-0.661826 29:-0.884543 30:-0.881567 31:-0.913919 32:-0.863266 33:-0.705157 34:0.351007 35:-0.691719 36:-0.705157 37:-0.819966 38:0.0292887 39:-0.498233 40:-0.87712 41:-0.157063 42:-0.35718 43:-0.156923 44:-0.747228 45:-0.36489 46:-0.703543 47:-0.630453 48:-0.469866 49:-0.182903 50:0.108598 51:-0.557579 52:-0.578617 53:-0.336526 54:-0.0205075 55:-0.717887 56:0.73695 57:-0.348342 58:-0.61392 59:-0.646986 60:-0.333115 61:-0.548397 62:-1 63:-0.708069 64:-0.0912609 65:-1 66:0.170252 67:-0.742318 68:-0.101005 69:-0.6791 70:-0.501063 71:-0.778929 72:-0.990864 73:-0.557544 74:-0.107071 75:-0.547417 76:-0.422304 77:-0.686275 78:-0.690661 79:-0.897313 80:-0.163798 81:0.695714 82:-0.612605 83:-0.0726979 84:-0.71993 85:-1 86:-0.229739 87:-0.732132 88:-0.44103 89:-0.767327 90:-0.058751 91:-0.576594 92:-0.325953 93:-0.891782 94:-0.112461 95:-0.442091 96:-0.163721 97:0.0124581 98:-0.187932 99:-0.950064 100:-0.734449 101:-0.737264 102:-0.0244071 103:-0.0754593 104:-0.325794 105:-0.40357 106:-0.589104 107:-0.146196 108:0.400265 109:-0.970995 110:-0.38619 111:-0.903411 112:-0.919076 113:-0.576669 114:0.750266 115:-0.76665 116:-0.455434 117:-0.246141 118:-0.578532 119:-0.888281 120:-0.852579 121:-0.0993287 122:-1 123:-0.912346 124:-0.624856 125:-0.807466 126:-0.263368 127:-0.181414 128:-0.587602 129:-0.926211 130:-0.853733 131:-0.324497 132:-0.058751 133:-0.0365535 134:-0.789316 135:-0.556167 136:-0.706022 137:-0.474901 138:-0.844268 139:-0.248953 140:-0.778836 141:-0.872973 142:-0.275765 143:-0.62664 144:-0.861907 145:0.179684 146:-0.325953 147:-0.562708 148:-0.903697 149:-0.753714 150:-0.117997 151:-0.384246 152:-0.4185 153:-0.269629 154:-0.984155 155:-0.0652066 156:-0.265102 157:-0.952644 158:-0.324291 159:-1 160:-1 161:-0.521194 162:-0.752716 163:-0.330481 164:-0.275765 165:-0.775198 166:-0.124207 167:-0.935766 168:-0.531156 169:-0.747083 170:-0.062598 171:-0.426197 172:-0.739997 173:-0.518043 174:-0.637846 175:0.0260743 176:-0.870755 177:-0.062598 178:-0.487691 179:-0.397405 180:-0.679563 181:0.663931 182:-0.135175 183:-0.377734 184:-0.804069 185:0.0259573 186:-0.656044 187:-0.543428 188:-0.290176 189:-0.649633 190:-0.61392 191:-0.337191 192:-0.701111 193:-0.951545 194:-0.477217 195:-0.818041 196:-0.706022 197:-0.384246 198:-0.880694 199:-0.458676 200:-0.95315 201:-0.0848852 202:0.0321872 203:-0.358207 204:-0.688774 205:0.0714388 206:-1 207:0.38002 208:0.0321872 209:0.423173 210:-0.216194 211:-0.795647 212:-0.531337 213:-1 214:-0.807599 215:-0.278309 216:-0.36623 217:-0.535145 218:-0.846171 219:-0.188884 220:-0.737411 221:-0.594119 222:-0.689613 223:-0.831947 224:-0.0663519 225:-0.668867 226:-0.743337 227:-0.798512 228:-0.956248 229:-0.94143 230:-0.82676 231:0.0748371 232:-0.484296 233:-0.729642 234:-0.532178 235:-0.793864 236:-0.420817 237:-1 238:-0.898598 239:-0.0726979 240:-0.688867 241:-0.567269 242:-0.634203 243:-0.614057 244:-0.293973 245:-0.726438 246:-0.649633 247:-0.470099 248:-0.799073 249:-0.338654 250:-0.414082 251:-0.793971 252:-0.473077 253:-0.183151 254:-0.356624 255:-0.815684 256:-0.458493 257:-0.536704 258:-0.338654 259:-0.276022 260:-0.7666 261:-0.0423889 262:0.0171107 263:-0.807462 264:-0.439484 265:-0.539201 266:-0.910926 267:-0.631339 268:-0.589688 269:-0.276022 270:-0.656964 271:-0.561572 272:-0.56652 273:-0.95179 274:-0.222001 275:-0.893689 276:-0.849497 277:-0.766965 278:0.448342 279:-0.851894 280:-0.705134 281:-0.973424 282:-0.582165 283:-0.219607 284:-0.749145 285:-0.299867 286:-0.0791444 287:-0.456952 288:0.253572 289:-0.474823 290:-0.0783724 291:-0.909459 292:-0.25 293:-0.678312 294:-0.484636 295:-0.64377 296:-0.718246 297:-0.612921 298:-0.754718 299:-0.0349363 300:-0.966749 301:-0.350242 302:-0.807038 303:-0.425952 304:-0.447017 305:-0.907842 306:-0.916744 307:-0.47445 308:-0.516442 309:-0.303057 310:-0.437605 311:-0.662897 312:0.185573 313:-0.00037561 314:-0.32492 315:-0.631339 316:0.264405 317:1 318:-0.156792 319:-0.185428 320:-0.492873 321:0.325618 322:-0.807097 323:-0.989092 324:0.275871 325:-0.611001 326:0.067085 327:-0.366775 328:-0.280525 329:0.798468 330:-0.366005 331:1 332:-0.835821 333:0.0863531 334:-0.938506 335:0.053269 336:-0.724714 337:-0.0521764 338:-0.386725 339:0.219352 340:-0.77879 341:-0.357702 342:-0.330386 343:-0.271034 344:-0.628487 345:-1 346:-0.202942 347:-0.258185 348:-0.5333 349:0.406409 350:-0.541056 351:-0.812741 352:-0.339584 353:-0.824879 354:-0.356624 355:-1 356:0.226159 357:-0.74902 358:0.0162294 359:0.108598 360:-0.932742 361:-0.156035 362:-0.36385 363:-0.591197 364:-0.612333 365:0.624135 366:-0.683115 367:-0.746456 368:-0.978074 369:-0.774243 370:-0.875315 371:0.0465013 372:-0.766505 373:-0.444576 374:0.0114888 375:0.167723 376:0.228676 377:0.228676 378:-0.101865 379:-0.594119 380:-0.213354 381:-0.631364 382:-0.760421 383:-0.743337 384:-0.354788 385:-0.611001 386:0.180039 387:-0.212849 388:0.623611 389:-0.241429 390:-0.551566 391:-0.662997 392:-0.954649 393:-0.101005 394:-0.179024 395:-0.373373 396:0.156016 397:-0.312848 398:-0.144135 399:-0.578532 400:-0.54527 401:-0.591451 402:-0.692595 403:-0.654144 404:-0.880577 405:-0.34904 406:0.521238 407:-0.345788 408:-0.377734 409:-0.806987 410:-0.483947 411:-0.662977 412:-0.283816 413:-0.824692 414:-0.299867 415:-0.299515 416:-0.47476 417:-0.47445 418:-0.865484 419:-0.638011 420:-0.507429 421:-0.821072 422:-0.603154 423:-0.924679 424:-0.430243 425:-0.373885 426:-0.410731 427:-0.181044 428:-0.759155 429:-0.0416078 430:-0.0642999 431:-0.262679 432:0.0602496 433:-0.276741 434:-0.324087 435:-0.517501 436:0.00526922 437:-0.367798 438:-0.00424056 439:-0.230416 440:-0.954702 441:-0.729716 442:-0.779094 443:-0.708069 444:-0.757112 445:-0.524437 446:-0.829787 447:0.17623 448:-0.549527 449:-0.625279 450:-0.10079 451:-0.602709 452:-0.685693 453:-0.5333 454:-0.230012 455:-0.190695 456:-0.742704 457:-0.179024 458:-0.397802 459:-0.752621 460:-0.115089 461:-0.662997 462:-0.535826 463:-0.686632 464:-0.671736 
-74.24009198933121 84.03748342780929 5.432985471269347 54.25216635358033 49.20053598152261 52.3244369981384 66.3289144380289 26.42376461755459 41.79236306390696 4.999001094117266 40.59103114597253 8.178918352431321 0:-0.509103 1:-0.361316 2:0.782573 3:0.235613 4:-0.397825 5:-0.80554 6:0.0307784 7:-1 8:-0.665767 9:-0.0692184 10:-0.83506 11:-1 12:-0.530701 13:0.29392 14:-0.64365 15:-1 16:-0.927894 17:-0.0207481 18:1 19:0.253251 20:-0.531524 21:-0.197533 22:-0.819562 23:-0.384206 24:0.966553 25:0.0694616 26:1 27:-0.288643 28:-0.791912 29:-0.288725 30:-0.344337 31:-0.682234 32:-1 33:-0.727608 34:0.0694616 35:-0.810305 36:-1 37:-1 38:-0.308627 39:-0.85746 40:-0.818401 41:-0.0658769 42:-0.406127 43:0.778974 44:-0.439767 45:-0.0614011 46:-0.217924 47:-0.658781 48:0.224277 49:-0.569085 50:-0.35338 51:-1 52:-0.777578 53:-0.863883 54:0.206117 55:-0.479592 56:0.0694616 57:-1 58:-0.524592 59:-0.881509 60:-0.0523326 61:-0.722115 62:-0.47937 63:-0.137387 64:0.0600937 65:-1 66:-0.77256 67:-0.238586 68:-1 69:-0.753018 70:-0.0781084 71:-0.455173 72:-0.966295 73:-0.727744 74:-0.381581 75:-0.665767 76:0.0668307 77:0.159537 78:1 79:0.136989 80:-0.48546 81:0.634165 82:-1 83:0.245378 84:-0.741399 85:-1 86:-0.525762 87:-0.901032 88:-0.62454 89:-0.570792 90:-1 91:-0.374448 92:-0.644526 93:-0.84007 94:-0.531524 95:-1 96:-0.0494588 97:-0.168663 98:1 99:-0.0784105 100:-0.803891 101:-0.0289233 102:-0.0991864 103:0.138451 104:-0.688745 105:-0.768033 106:-0.810305 107:-0.549727 108:-1 109:-0.785855 110:0.889349 111:-1 112:-0.302144 113:0.0432952 114:-0.0761448 115:-0.784543 116:-1 117:-0.357293 118:-0.0658769 119:-0.175422 120:-1 121:-0.0494588 122:0.246766 123:0.61768 124:-0.846072 125:-0.288391 126:-0.505205 127:-0.582953 128:-0.936549 129:-1 130:-0.914686 131:-0.465269 132:-1 133:-0.352853 134:0.816849 135:-0.850939 136:0.0860148 137:-1 138:0.149437 139:-0.867946 140:-1 141:-0.882684 142:-0.554356 143:-0.827634 144:-0.854263 145:-0.591491 146:-0.288643 147:-0.538502 148:-1 149:-0.545184 150:-1 151:-0.431443 152:-0.873707 153:-0.530804 154:-1 155:0.72673 156:-0.728638 157:-1 158:-0.286889 159:-0.710326 160:-0.707045 161:-0.747269 162:-0.501795 163:0.237077 164:-0.554099 165:-1 166:-0.568569 167:-1 168:-0.0106944 169:-0.844373 170:-0.25795 171:0.695503 172:-1 173:-0.109971 174:-0.426809 175:0.516096 176:-0.761584 177:-0.505205 178:-0.459333 179:-0.0106944 180:-0.605371 181:-0.352853 182:-0.0416206 183:-0.425116 184:-0.457068 185:-0.554099 186:-0.205678 187:-0.887607 188:0.747607 189:-0.568569 190:-1 191:-0.510233 192:-0.72396 193:-0.880584 194:-1 195:-0.84487 196:-0.565544 197:-0.620889 198:-0.55924 199:0.999012 200:-0.827153 201:0.126895 202:-0.455173 203:-0.28878 204:-0.521012 205:0.484101 206:-1 207:-0.575416 208:-0.455173 209:-0.0723708 210:0.0859766 211:0.321219 212:-0.307385 213:-1 214:-0.822347 215:-0.855861 216:-0.665767 217:-0.809262 218:-1 219:-0.182917 220:0.61768 221:1 222:0.146382 223:-0.98651 224:-0.35338 225:-0.888853 226:-0.0517972 227:0.241271 228:-0.907678 229:-0.97296 230:0.918172 231:-1 232:-0.619152 233:-0.909253 234:0.382347 235:-0.80956 236:0.0698535 237:-0.696056 238:0.122762 239:-0.0658769 240:0.149437 241:0.598599 242:0.0136346 243:-0.286889 244:-0.763018 245:-0.747414 246:0.0784533 247:-0.288337 248:-0.443422 249:-0.185603 250:-0.768093 251:-1 252:-0.44391 253:-0.137922 254:-0.0494588 255:-0.591491 256:1 257:-0.286971 258:0.357433 259:0.671935 260:0.379324 261:-0.494538 262:0.502707 263:-1 264:-0.586059 265:-0.489353 266:-0.835687 267:0.089339 268:0.136989 269:-0.331149 270:-0.819092 271:-0.676034 272:-0.644066 273:-0.466202 274:-0.13784 275:0.569328 276:-0.777578 277:0.148295 278:0.337317 279:-1 280:-0.727744 281:-0.950975 282:-1 283:-0.0390474 284:-0.258761 285:-0.56892 286:-0.690909 287:-0.331277 288:-0.182917 289:0.941067 290:-0.773126 291:0.670969 292:0.385383 293:-1 294:-0.238367 295:-0.624052 296:-1 297:-0.795745 298:-0.870645 299:-0.524592 300:-0.75451 301:1 302:-0.910917 303:-0.293339 304:-1 305:-1 306:-0.923128 307:-0.676613 308:-1 309:0.0299792 310:0.661796 311:-0.688745 312:0.564292 313:-0.565544 314:0.108307 315:-1 316:0.556992 317:-0.639555 318:0.0383004 319:0.671935 320:0.498488 321:-0.510233 322:-1 323:-1 324:-0.142998 325:-0.281478 326:0.126163 327:-1 328:0.518162 329:0.245572 330:-0.765897 331:-0.178893 332:-0.886294 333:0.00308404 334:-0.773126 335:-0.610856 336:0.525652 337:1 338:0.887704 339:-0.763018 340:-0.863883 341:-0.568569 342:-0.505205 343:-1 344:-0.313551 345:-1 346:-1 347:-0.252728 348:-1 349:-1 350:0.27175 351:-0.307887 352:-0.186748 353:0.132227 354:-0.287026 355:-0.970899 356:-0.137387 357:-0.381462 358:0.173113 359:-0.784543 360:-0.751717 361:0.55855 362:-0.752585 363:-0.784409 364:-0.915805 365:1 366:-0.832884 367:-0.0633185 368:-0.959554 369:-0.772582 370:-1 371:0.288664 372:-0.352978 373:0.368836 374:0.660603 375:-0.137387 376:-0.0920984 377:-0.0920984 378:-0.585366 379:1 380:-0.792509 381:-0.844391 382:-1 383:-1 384:0.0211931 385:-0.425116 386:-0.377132 387:-1 388:-0.571746 389:-0.377132 390:-0.668831 391:-0.169459 392:-1 393:0.245572 394:-0.241952 395:-0.710711 396:0.423325 397:0.269242 398:-0.712724 399:-0.377132 400:-0.832091 401:-0.784543 402:0.135191 403:-0.0416206 404:-1 405:-0.656702 406:-0.37581 407:-1 408:-0.712724 409:-0.714755 410:-1 411:-0.822263 412:0.889349 413:0.29392 414:-0.425116 415:0.29392 416:-0.16869 417:-0.352853 418:-1 419:0.00308404 420:-0.545184 421:-0.952805 422:-0.511336 423:-1 424:-0.381003 425:-0.466202 426:-1 427:0.245461 428:-0.822136 429:-0.727744 430:0.885166 431:0.089339 432:-0.793939 433:-0.703235 434:0.361769 435:-0.40585 436:-0.571546 437:-0.221504 438:0.337317 439:-0.620889 440:-1 441:-0.85746 442:-1 443:-1 444:-1 445:0.317802 446:-0.161267 447:0.184882 448:0.188382 449:0.384296 450:-0.16926 451:0.468397 452:-1 453:0.293241 454:0.0668307 455:-0.00373349 456:-0.287026 457:-1 458:-0.682418 459:-0.543065 460:-1 461:-0.169459 462:1 463:-1 464:-0.848453 
-21.99102288827001 36.67023482658141 11.69109841768968 15.08686026266835 0 40.80285711131091 7.600166798406065 0 7.06797089489731 17.84182192221569 0 18.53228922006632 0:0.0461277 1:-0.546392 2:0.519523 3:-1 4:0.283268 5:-0.585511 6:0.317885 7:-1 8:-1 9:-0.338759 10:-0.297081 11:-0.287587 12:1 13:-0.310705 14:-1 15:-1 16:-1 17:0.565279 18:-0.289777 19:-1 20:-0.501013 21:-1 22:-0.80781 23:-1 24:0.047619 25:-1 26:-1 27:0.515785 28:-1 29:-1 30:-0.534333 31:-1 32:0.0764034 33:-0.709867 34:-1 35:-1 36:-1 37:-1 38:-1 39:-0.696178 40:-0.806573 41:-1 42:-1 43:-1 44:-1 45:1 46:1 47:1 48:0.0436133 49:-1 50:0.837475 51:-0.419578 52:-1 53:-0.419578 54:-1 55:0.109244 56:0.519523 57:-1 58:-0.493629 59:0.515785 60:-0.192177 61:-0.407692 62:-1 63:-1 64:-1 65:-1 66:-0.0301679 67:-1 68:-0.115366 69:1 70:-1 71:-1 72:-1 73:-1 74:-1 75:-1 76:-1 77:-0.176471 78:-1 79:-1 80:-1 81:-1 82:-1 83:-1 84:-0.173208 85:-1 86:-1 87:-0.683703 88:1 89:-0.0851485 90:-1 91:1 92:-1 93:-1 94:-0.0017551 95:-0.268264 96:-0.493629 97:-0.114518 98:-1 99:-1 100:-0.581995 101:-0.310319 102:-1 103:-1 104:-1 105:-1 106:-0.595668 107:-1 108:-0.387674 109:-1 110:-1 111:-1 112:-1 113:0.111245 114:-0.0159744 115:-0.0812624 116:-1 117:-1 118:-1 119:-1 120:-0.709867 121:-1 122:-1 123:-1 124:-0.0155348 125:-1 126:-1 127:1 128:-0.323624 129:-0.709867 130:1 131:-0.240238 132:-0.430069 133:-1 134:-1 135:-1 136:-1 137:-1 138:-1 139:0.407661 140:-1 141:1 142:-1 143:-0.632604 144:-1 145:0.450977 146:-0.242312 147:-1 148:-0.810471 149:-0.353784 150:-1 151:0.615645 152:-0.19228 153:1 154:-1 155:-1 156:0.157121 157:-1 158:-0.240444 159:-1 160:-1 161:-0.461471 162:-0.292135 163:0.317647 164:-0.525058 165:-1 166:-1 167:-1 168:0.0543277 169:-1 170:-0.472979 171:-1 172:-1 173:-1 174:-0.592907 175:-1 176:-1 177:-0.472979 178:-1 179:-1 180:-1 181:-1 182:-1 183:-1 184:-0.228586 185:-1 186:-0.661538 187:-0.281177 188:-1 189:-0.54047 190:-0.493629 191:-0.478335 192:1 193:-1 194:0.763976 195:-0.118405 196:-0.537248 197:-0.192177 198:-0.530271 199:-1 200:-1 201:-1 202:0.160936 203:-1 204:-1 205:-0.472979 206:-1 207:-1 208:-1 209:-1 210:-0.228715 211:-1 212:-1 213:-1 214:-0.873827 215:-0.385727 216:-0.287587 217:-0.593444 218:-1 219:-0.419689 220:-1 221:-1 222:-1 223:-0.884957 224:-0.540755 225:-0.052112 226:-1 227:-1 228:-0.950818 229:-0.538829 230:-1 231:-1 232:-0.188228 233:-1 234:-0.263598 235:-0.391362 236:-1 237:-1 238:-1 239:0.32723 240:-1 241:-1 242:-1 243:-1 244:-1 245:-1 246:-0.54047 247:-1 248:-1 249:-1 250:-0.670499 251:-1 252:0.184936 253:-0.0812624 254:-1 255:-0.419578 256:-1 257:-0.392191 258:0.157121 259:-1 260:-1 261:-1 262:-0.19948 263:0.0610086 264:-1 265:-0.274458 266:-1 267:-0.419689 268:-1 269:0.425212 270:-0.614397 271:-1 272:-0.620884 273:-1 274:-1 275:-1 276:-0.763092 277:-1 278:-1 279:-0.650235 280:-1 281:-1 282:-0.419615 283:-1 284:-0.605128 285:0.531146 286:-1 287:-0.525058 288:0.160936 289:-1 290:-1 291:-1 292:-1 293:-1 294:-1 295:0.201517 296:0.330893 297:0.0156998 298:-0.724282 299:-1 300:-1 301:-1 302:-1 303:-0.623549 304:-1 305:-0.854934 306:-0.672208 307:-1 308:-0.524165 309:-1 310:-0.114731 311:-1 312:1 313:-1 314:-1 315:-1 316:-1 317:-1 318:-1 319:-1 320:-0.201728 321:-1 322:-0.493629 323:-1 324:-1 325:-1 326:1 327:-1 328:-1 329:-1 330:-1 331:-1 332:-0.838443 333:-1 334:-1 335:-1 336:0.0838464 337:0.0654367 338:-1 339:0.515648 340:-0.419578 341:0.378839 342:-1 343:-1 344:-1 345:-1 346:0.0456795 347:-1 348:-1 349:-1 350:-1 351:-1 352:0.155493 353:-1 354:-0.493629 355:-1 356:-0.54047 357:-1 358:1 359:-1 360:-1 361:-1 362:-0.736471 363:-0.0806913 364:-0.640981 365:-1 366:-1 367:0.497232 368:-1 369:-0.676878 370:-0.754614 371:-1 372:0.378839 373:-1 374:-0.115366 375:-1 376:-0.032967 377:-1 378:-1 379:-1 380:-1 381:-0.50249 382:-0.709789 383:-0.494875 384:-0.274725 385:-1 386:-1 387:-0.483799 388:-1 389:-1 390:-0.294118 391:-1 392:-1 393:-1 394:-1 395:0.233567 396:-1 397:-1 398:-1 399:-1 400:0.431974 401:-0.540755 402:-1 403:-1 404:-0.372858 405:-1 406:-1 407:-0.0912815 408:-0.387674 409:-1 410:-1 411:-1 412:-1 413:-1 414:-1 415:-1 416:-1 417:-0.310705 418:-1 419:-1 420:-1 421:-0.698157 422:-1 423:-0.111378 424:-1 425:-1 426:-1 427:-1 428:-1 429:-0.419689 430:0.33925 431:-1 432:-1 433:-1 434:-1 435:-0.746832 436:-0.0869422 437:-1 438:-1 439:-0.596198 440:-1 441:-1 442:-0.795418 443:-1 444:-0.617668 445:-0.0640669 446:-1 447:-1 448:-0.493629 449:-0.41015 450:-1 451:0.0428894 452:-0.646556 453:-1 454:-0.242312 455:-1 456:-1 457:-0.461617 458:-0.323077 459:-0.610494 460:-0.419689 461:-1 462:-1 463:-0.564723 464:-1 
-8.327926241256758 21.58165373793883 22.49557337747929 12.90276910941909 0 0 35.82996203452842 0 26.86064741135512 31.75042910983793 0 44.50534097479737 0:-1 1:-1 2:-1 3:-1 4:-0.53159 5:-1 6:-0.759477 7:-0.945765 8:-1 9:-1 10:0.347086 11:-1 12:-1 13:-1 14:-1 15:-1 16:-0.410762 17:1 18:-0.611068 19:-1 20:-0.45349 21:-1 22:1 23:-0.640816 24:-1 25:-0.584053 26:-0.611068 27:0.244772 28:-1 29:-1 30:-1 31:-0.0730769 32:-0.174819 33:-1 34:-1 35:-0.55716 36:-0.205432 37:-0.689618 38:-1 39:-0.167941 40:-1 41:-0.27338 42:-1 43:-1 44:-1 45:-1 46:-1 47:-0.601731 48:1 49:-0.497018 50:0.509195 51:-0.682236 52:-0.870265 53:-0.841118 54:-0.296489 55:-0.392557 56:-1 57:-1 58:-1 59:-1 60:-1 61:-0.675641 62:-1 63:-1 64:-1 65:-1 66:0.593127 67:-1 68:-0.515558 69:-0.884738 70:-1 71:-1 72:-1 73:-0.682211 74:-0.759477 75:-1 76:-0.585076 77:-1 78:-1 79:-1 80:-1 81:-0.364421 82:-0.666062 83:-0.818345 84:-0.924559 85:-1 86:-1 87:-0.942274 88:-1 89:-1 90:-1 91:-0.452529 92:-0.585076 93:-1 94:0.366545 95:-1 96:0.109467 97:-1 98:-1 99:-1 100:-1 101:-0.622318 102:-1 103:-0.335958 104:-0.63669 105:-0.729394 106:-0.77858 107:-1 108:-0.329357 109:-1 110:-1 111:-1 112:-1 113:-1 114:-1 115:-0.497018 116:-1 117:1 118:-1 119:-0.759449 120:-1 121:-0.445403 122:-1 123:-0.622529 124:0.0782068 125:-1 126:-1 127:-0.39156 128:1 129:-0.841118 130:-0.601757 131:-1 132:-0.687895 133:-1 134:-1 135:1 136:-0.493176 137:-0.245527 138:-1 139:-0.691722 140:-0.682227 141:-0.0143771 142:-1 143:-1 144:-1 145:-0.04655 146:-0.585076 147:-1 148:-0.89621 149:-0.646216 150:-0.683255 151:-0.336611 152:-1 153:-0.863123 154:-1 155:-1 156:-0.0497653 157:-1 158:-1 159:-1 160:-1 161:0.326875 162:-0.903116 163:-1 164:-1 165:-1 166:-0.245058 167:-1 168:-0.422786 169:-0.455035 170:-1 171:-1 172:-1 173:-1 174:-1 175:0.179607 176:-1 177:0.154713 178:-1 179:-0.134179 180:-0.539372 181:-0.622529 182:-0.627256 183:-1 184:-0.155138 185:-0.479825 186:-0.258425 187:0.44335 188:-1 189:-1 190:-1 191:1 192:-0.935589 193:-0.651662 194:-0.0341153 195:-0.7586 196:-0.746588 197:-0.77887 198:-1 199:-0.666776 200:-1 201:-1 202:-0.0466321 203:-1 204:-1 205:-0.711393 206:-1 207:-1 208:-1 209:0.804278 210:-1 211:-0.779761 212:-1 213:-1 214:0.31301 215:-0.663621 216:-1 217:-0.332087 218:-1 219:-0.682211 220:-1 221:-1 222:-0.777068 223:1 224:-1 225:-1 226:-1 227:-1 228:-0.757578 229:-0.936876 230:-0.626981 231:-0.643599 232:-0.555458 233:-0.470274 234:-1 235:-0.555568 236:-0.687895 237:-1 238:-1 239:0.08993 240:-0.664679 241:-1 242:-1 243:-1 244:-0.446768 245:-0.705171 246:-1 247:-0.792389 248:-0.27836 249:-1 250:0.0825312 251:-1 252:-0.675641 253:-1 254:-1 255:-0.364314 256:-0.611068 257:-0.833621 258:-1 259:-1 260:-1 261:-0.115513 262:-0.56162 263:-1 264:-0.51683 265:-0.602787 266:-1 267:-0.364421 268:-1 269:-1 270:-0.788837 271:-0.811035 272:0.0382603 273:-1 274:-1 275:-0.542185 276:-0.870265 277:-1 278:-0.609869 279:-0.936166 280:-0.682211 281:-0.942776 282:-0.576198 283:-0.43949 284:-0.783761 285:-0.497018 286:-0.278431 287:-1 288:-0.364421 289:-1 290:-1 291:-1 292:-0.595847 293:0.109467 294:-1 295:-0.342145 296:-0.878562 297:0.82738 298:-1 299:-1 300:-1 301:-0.0666359 302:-1 303:-0.793848 304:-1 305:-0.920559 306:-0.910272 307:-1 308:-1 309:-1 310:-0.51521 311:-1 312:-0.634986 313:-0.239765 314:-1 315:-0.682211 316:-0.27338 317:0.0514179 318:-1 319:-1 320:-0.562851 321:1 322:-1 323:-1 324:1 325:-0.664679 326:-0.781 327:-1 328:-1 329:-1 330:-1 331:-0.52106 332:-0.513449 333:-0.219738 334:-1 335:-0.319053 336:-0.703313 337:-1 338:-0.559521 339:-0.723384 340:-1 341:-0.748353 342:-0.711393 343:-1 344:-1 345:-0.6588 346:-0.141281 347:-1 348:-0.748509 349:-0.39383 350:-0.505376 351:-0.730815 352:-0.683701 353:-0.622529 354:-0.722702 355:-1 356:0.510133 357:-1 358:-1 359:-0.748509 360:-1 361:-1 362:-0.855686 363:-1 364:-0.606798 365:0.556111 366:-1 367:-0.45349 368:-1 369:-0.557663 370:-1 371:-0.398603 372:-1 373:0.596844 374:-1 375:-1 376:-1 377:-1 378:-0.516021 379:-1 380:-1 381:0.725295 382:0.191773 383:-1 384:-1 385:-0.329357 386:-0.63669 387:-0.434637 388:1 389:-1 390:-1 391:-1 392:-1 393:-0.515558 394:0.769264 395:-1 396:-0.169351 397:-1 398:-0.329357 399:-1 400:-0.215842 401:-0.748509 402:-1 403:-1 404:-0.828329 405:-0.198575 406:-0.271418 407:0.492789 408:0.676938 409:-0.833621 410:-0.364314 411:0.0375154 412:-1 413:-1 414:-0.664679 415:-0.622529 416:-1 417:-0.622529 418:-1 419:-1 420:-0.469324 421:-0.944912 422:-1 423:-0.837821 424:-1 425:-1 426:-1 427:-0.792389 428:-0.169351 429:-0.682211 430:-1 431:-1 432:0.683898 433:-0.653603 434:-1 435:-0.86136 436:1 437:-0.455035 438:-0.609869 439:-0.557741 440:-1 441:-1 442:-0.0478667 443:-0.748353 444:-1 445:-0.487465 446:-0.755319 447:-1 448:-1 449:-1 450:-1 451:-1 452:1 453:-1 454:-0.170152 455:-1 456:-1 457:-0.705171 458:-1 459:-0.893378 460:-0.364421 461:-0.515558 462:-0.333224 463:-0.602716 464:-0.823108 
-205.6320246493325 100.9401589611975 29.92280763670135 120.6248671713857 31.96872312294465 143.895640732496 149.7994774080819 38.89243353324525 126.1009610003042 30.8804374262366 42.22963211487032 39.87773244108233 0:-0.675125 1:-0.365979 2:0.0616523 3:-0.141595 4:-0.601481 5:-0.324212 6:-0.795365 7:-0.976955 8:-0.502313 9:-0.769093 10:-0.549862 11:-0.66808 12:-0.650798 13:-0.678851 14:0.238389 15:-0.315308 16:-0.498752 17:-0.270854 18:-0.669101 19:-0.688945 20:-0.0700689 21:-0.60185 22:-0.820914 23:-0.236202 24:-0.0238095 25:-0.292232 26:-0.834743 27:-0.293973 28:-0.276851 29:-0.647068 30:-0.45773 31:-0.526923 32:-0.699161 33:-0.864825 34:0.415536 35:-0.717536 36:-0.594474 37:-0.73593 38:-0.313808 39:-0.858446 40:-0.594515 41:-0.690899 42:-0.115865 43:-0.116923 44:-0.443858 45:0.164187 46:-0.611938 47:-0.873014 48:-0.270854 49:0.0695825 50:-0.144135 51:-0.594474 52:-0.55849 53:-0.797315 54:-0.701078 55:-0.22509 56:-0.115495 57:-0.468928 58:-0.764077 59:-0.70589 60:-0.24746 61:0.379808 62:-0.354239 63:-0.785901 64:-0.824608 65:-0.986627 66:-0.548269 67:0.0392888 68:0.030158 69:-0.828417 70:-0.77152 71:-0.0538546 72:-0.966529 73:-0.459256 74:-1 75:0.327679 76:-0.293973 77:-0.23262 78:-0.432713 79:0.128687 80:-0.489021 81:-0.459256 82:-0.573998 83:-0.613714 84:-0.807447 85:-0.977993 86:-0.647123 87:-0.877246 88:-0.813677 89:-0.360891 90:-0.734464 91:-0.689478 92:-0.470685 93:-0.682537 94:-0.651411 95:0.0227678 96:-0.292232 97:-0.587446 98:-0.338201 99:-0.817042 100:-0.707985 101:-0.678671 102:-0.553055 103:-0.435039 104:-0.536528 105:-0.251822 106:-0.717536 107:-0.329525 108:-0.714712 109:-0.946927 110:-0.812677 111:0.0616523 112:-0.851601 113:-0.482261 114:-0.541534 115:-0.572068 116:-0.786117 117:-0.255774 118:-0.227428 119:-0.590682 120:-0.932491 121:-0.646253 122:0.237662 123:-0.678851 124:-0.388549 125:-0.411459 126:-0.508912 127:-0.89649 128:-0.96853 129:-0.729649 130:-0.887078 131:-0.469174 132:0.194757 133:-0.518463 134:-0.484663 135:-0.593196 136:-0.461124 137:-0.144135 138:-0.714712 139:-0.0820196 140:-0.684635 141:-0.965078 142:-0.55744 143:-0.144135 144:-0.71071 145:-0.797315 146:-0.293973 147:-0.77098 148:-0.602687 149:-0.623842 150:-0.730516 151:-0.717907 152:-0.686526 153:0.513762 154:-0.985503 155:-0.357392 156:-0.461033 157:-0.956578 158:-0.469379 159:-0.640705 160:0.0180774 161:-0.749162 162:-0.71155 163:0.227807 164:-0.77872 165:-0.793871 166:-0.571802 167:0.176712 168:-0.508912 169:-0.304613 170:-0.631827 171:-0.579179 172:-0.404126 173:-0.852916 174:-0.525939 175:0.128623 176:-0.644988 177:-0.508912 178:-0.731692 179:-0.754456 180:-0.608102 181:0.284595 182:-0.207366 183:0.426441 184:-0.101721 185:-0.33616 186:-0.369231 187:-0.609411 188:-0.566247 189:-0.678976 190:-0.174407 191:-0.149471 192:-0.725997 193:-0.733361 194:-1 195:-0.769034 196:-0.461124 197:-0.529772 198:-0.671812 199:-0.574909 200:-1 201:-0.627111 202:0.48689 203:-0.882465 204:-0.857419 205:-0.140739 206:-0.940496 207:0.264936 208:-0.594599 209:-0.693048 210:-0.640651 211:-0.90642 212:0.0311377 213:-0.942715 214:-0.676715 215:-0.105923 216:-0.66808 217:-0.526565 218:-0.811865 219:-0.729628 220:-0.197314 221:-0.503603 222:-0.905276 223:-0.83926 224:-0.679175 225:-0.503365 226:-0.764658 227:0.232112 228:-0.816687 229:-0.798622 230:0.110579 231:-0.0903328 232:-0.243576 233:-0.729642 234:0.0292887 235:-0.669283 236:-0.336315 237:-0.396319 238:-0.814239 239:-0.0726979 240:-0.286945 241:-0.206782 242:-0.161667 243:0.0616523 244:-0.764658 245:-0.498325 246:-0.571802 247:-0.823366 248:-0.754439 249:-0.326448 250:-0.731462 251:0.259877 252:-0.586218 253:-0.251243 254:-0.292232 255:-0.121438 256:-0.503843 257:-0.221537 258:-0.865415 259:-0.834233 260:-0.74334 261:0.128623 262:0.305177 263:-0.646986 264:-0.177847 265:-0.493082 266:-0.265801 267:-0.594599 268:-0.0596461 269:-0.834233 270:-0.730621 271:-0.839231 272:-0.646733 273:-0.646733 274:0.283632 275:0.36304 276:-0.392988 277:-0.857663 278:-0.66808 279:-0.674141 280:0.0814885 281:-0.951315 282:0.126439 283:-0.284963 284:-0.0801282 285:-0.429423 286:-0.53975 287:-0.77872 288:-0.594599 289:-0.357702 290:-0.662175 291:0.160855 292:-0.3123 293:0.0615153 294:-0.244074 295:-0.533694 296:0.136497 297:-0.628307 298:-0.422007 299:-0.646253 300:-1 301:-0.602951 302:-0.513486 303:-0.298431 304:-0.155416 305:-0.662061 306:-0.809194 307:-0.518463 308:-0.279748 309:0.27753 310:-0.587545 311:-0.536528 312:-0.68945 313:-0.245524 314:-0.86262 315:-0.729628 316:-0.381799 317:-0.642256 318:-0.742669 319:-0.834233 320:-0.256156 321:0.093578 322:-0.292232 323:-1 324:-0.14942 325:-0.429423 326:-0.720623 327:-0.303668 328:-0.0582057 329:0.030158 330:-0.186445 331:-0.185045 332:-0.811873 333:-0.00424056 334:-0.887479 335:-0.710441 336:-0.495163 337:-1 338:-0.25049 339:-0.411781 340:-0.256614 341:-0.464876 342:-0.263368 343:0.0692332 344:-0.659347 345:-1 346:-0.147787 347:-0.258185 348:-0.572068 349:-0.742438 350:-0.579179 351:-1 352:-0.730895 353:-0.839426 354:-0.292232 355:-0.971117 356:-0.893075 357:0.0741533 358:-0.185015 359:-0.572068 360:-0.507155 361:-0.226715 362:-0.693119 363:0.0704961 364:-0.66555 365:-0.00730208 366:-0.917116 367:-0.651411 368:-0.919668 369:-0.698991 370:-0.54269 371:-0.232506 372:-0.893075 373:0.0185404 374:-0.382001 375:-0.785901 376:-0.324437 377:-0.549451 378:0.852702 379:0.240703 380:-0.484983 381:-0.80689 382:-0.763482 383:-0.176438 384:-0.155416 385:-0.00165673 386:-0.227428 387:0.443017 388:0.0629785 389:-0.690899 390:-0.506875 391:0.030158 392:-1 393:-0.79416 394:-0.623889 395:-0.425425 396:-0.470099 397:-0.370208 398:-0.714712 399:-0.845629 400:-1 401:-0.144135 402:-0.758601 403:-0.682873 404:-1 405:-0.318155 406:-0.690425 407:-0.929531 408:-0.286945 409:-0.575339 410:-0.391789 411:-0.205822 412:-0.812677 413:-0.357702 414:-0.286945 415:-0.0365535 416:-0.58754 417:-0.197314 418:-0.753578 419:-0.502313 420:-0.623842 421:-0.0392205 422:-0.393888 423:-0.103205 424:-0.754228 425:-0.381885 426:-0.730154 427:-0.646733 428:-0.646733 429:-0.324227 430:-0.532331 431:0.216518 432:-0.795365 433:-0.558104 434:-0.549392 435:-0.469279 436:-0.929195 437:-0.536349 438:-0.00424056 439:-0.24746 440:-0.972332 441:-0.787752 442:-0.976205 443:-0.571802 444:-0.911038 445:-0.56394 446:-0.167311 447:0.17623 448:-0.764077 449:-0.587935 450:-0.587742 451:-0.271445 452:-0.807948 453:-0.35835 454:-0.646986 455:-1 456:-0.764077 457:-0.373052 458:-0.211722 459:-0.274298 460:-0.729628 461:-0.587841 462:0.418218 463:-0.83107 464:-0.77434 
-226.7739191339659 -157.0101112884356 28.30224325279777 173.6752851562875 72.23042231877953 121.5073302215994 139.0276526063069 0 107.3533929374328 3.585635425025061 0 77.18808065881215 0:-0.663239 1:-0.54001 2:-0.193177 3:-0.567806 4:-0.52511 5:-0.739823 6:-0.533452 7:-0.894799 8:-0.380879 9:-0.632982 10:-0.448617 11:-0.174248 12:-0.155261 13:-0.40097 14:-0.193177 15:-0.538767 16:-0.985196 17:0.108257 18:-0.348194 19:-0.484104 20:0.325233 21:-0.532151 22:-0.461702 23:-0.0498669 24:0.619048 25:0.0454172 26:-0.725596 27:0.317343 28:-0.635905 29:-0.868307 30:-0.865188 31:-0.787546 32:-0.792103 33:-0.565743 34:-0.156597 35:-0.687562 36:-0.719758 37:-0.493636 38:-0.110978 39:-0.559885 40:-0.794536 41:-0.519296 42:-0.114154 43:-0.313333 44:-0.827107 45:-0.0824993 46:-0.565594 47:-0.376777 48:-0.521242 49:-0.290258 50:0.153082 51:-0.593689 52:-0.713993 53:-0.467619 54:0.179006 55:-0.464586 56:-0.229758 57:-0.504703 58:-0.584327 59:-0.817002 60:0.0529881 61:-0.828526 62:-0.464366 63:-0.356459 64:-0.109187 65:-0.958357 66:0.33447 67:-0.804214 68:0.23887 69:-0.710308 70:-0.526036 71:-0.52363 72:-0.972243 73:-0.411525 74:-0.236364 75:-0.759059 76:-0.121771 77:-0.284314 78:-0.147422 79:-0.454228 80:-0.470623 81:-0.52363 82:-0.470054 83:-0.423263 84:-0.773827 85:-0.872102 86:-0.36586 87:-0.862586 88:-0.439948 89:-0.867327 90:-0.0368543 91:-0.613741 92:-0.597376 93:-0.843665 94:-0.397597 95:-0.222728 96:0.0026031 97:-0.0167705 98:-0.451191 99:-0.924139 100:-0.636734 101:-0.43385 102:-0.691189 103:0.229659 104:-0.583558 105:-0.522695 106:-0.863253 107:-0.443781 108:0.00530152 109:-0.845841 110:-0.339142 111:-0.853268 112:-0.835853 113:-0.46362 114:-0.192226 115:-0.733847 116:-0.571239 117:-0.647277 118:-0.64746 119:-0.809128 120:-0.817882 121:-0.388683 122:-0.273119 123:0.0652742 124:-0.397958 125:-0.756051 126:-0.669186 127:0.373167 128:-0.366511 129:-0.775807 130:-0.78055 131:-0.449856 132:-0.697147 133:-0.534129 134:-0.786324 135:-0.716311 136:-0.463628 137:-0.645129 138:-0.556329 139:-0.714569 140:-0.785221 141:-0.794825 142:0.88075 143:-0.858052 144:-0.910038 145:0.372949 146:-0.121771 147:-0.596489 148:-0.82606 149:-0.906485 150:-0.329577 151:-0.297935 152:-0.843991 153:-0.565429 154:-0.963893 155:0.0662021 156:0.0056338 157:-0.923494 158:0.136868 159:-0.851073 160:-0.366785 161:-0.675018 162:-0.940166 163:0.145098 164:-0.632999 165:-0.530045 166:0.686435 167:-0.780511 168:-0.592756 169:-0.599533 170:0.476116 171:-0.825513 172:-0.876506 173:-0.450658 174:-0.823108 175:-0.298179 176:-0.828131 177:-0.414801 178:-0.527267 179:-0.440183 180:-0.512517 181:0.497949 182:-0.375322 183:-0.763419 184:-0.553052 185:-0.380879 186:-0.575092 187:-0.583485 188:0.0337531 189:-0.178913 190:-0.41307 191:-0.546648 192:-0.767113 193:-0.926285 194:0.00771372 195:-0.920169 196:-0.798923 197:-0.434502 198:-0.943333 199:-0.382944 200:-0.697568 201:-0.265483 202:-0.411525 203:-0.439114 204:-0.881716 205:-0.0583203 206:-0.963026 207:0.31097 208:-0.439472 209:0.0499109 210:0.117279 211:-0.553428 212:-0.857485 213:-0.970326 214:-0.908579 215:-0.569993 216:0.135312 217:-0.626884 218:-0.649077 219:-0.52363 220:-0.201044 221:-0.279908 222:-0.449499 223:-0.834779 224:-0.689612 225:-0.851292 226:-0.463441 227:-0.718947 228:-0.919255 229:-0.977732 230:-0.342057 231:0.00581088 232:-0.137711 233:-0.439606 234:-0.0041841 235:-0.82372 236:-0.669699 237:-0.812445 238:-0.865156 239:-0.391133 240:-0.526839 241:-0.144858 242:-0.617452 243:-0.266338 244:-0.36586 245:-0.662054 246:-0.755813 247:-0.487332 248:-0.866381 249:-0.553052 250:-0.570499 251:-0.712613 252:-0.542308 253:-0.667247 254:-0.682148 255:-0.649737 256:-0.554189 257:-0.603946 258:-0.329577 259:0.203932 260:-0.733797 261:-0.583977 262:0.121074 263:-0.79508 264:-0.403676 265:-0.68482 266:-0.847816 267:-0.691631 268:-0.610225 269:0.444873 270:-0.534481 271:-0.250117 272:-0.395835 273:-0.94502 274:-0.497349 275:-0.636734 276:-0.702583 277:-0.793115 278:0.101002 279:-0.915539 280:-0.215261 281:-0.929375 282:-0.869269 283:-0.505954 284:-0.961966 285:-0.689529 286:-0.427451 287:-0.334875 288:0.149003 289:-0.201044 290:-0.29949 291:-0.621653 292:-0.501198 293:-0.804357 294:-0.177349 295:-0.574648 296:-1 297:-0.803831 298:-0.813652 299:-0.41307 300:-0.924301 301:0.193452 302:-0.779913 303:-0.000203707 304:-0.43956 305:-0.887903 306:-0.746775 307:-0.800448 308:-0.908102 309:0.00682695 310:-0.14491 311:-0.711721 312:0.0301172 313:-0.0169025 314:-0.315655 315:-0.411525 316:-0.423443 317:0.149475 318:-0.145422 319:-0.518504 320:-0.190497 321:0.209033 322:-0.437731 323:-0.89644 324:-0.383058 325:-0.822565 326:0.139364 327:-0.374326 328:-0.218818 329:0.409765 330:-0.542055 331:-0.239943 332:-0.805012 333:0.203932 334:-0.649614 335:-0.159359 336:-0.581354 337:-0.279908 338:-0.611752 339:-0.146371 340:-0.87393 341:-0.00136765 342:-0.541993 343:-0.501397 344:-0.223343 345:-0.308159 346:-0.62127 347:-0.717978 348:-0.911282 349:0.924528 350:-0.694526 351:-0.501529 352:-0.107361 353:-0.650504 354:-0.486505 355:-0.986531 356:0.397986 357:-0.681996 358:-0.396538 359:-0.423459 360:-0.859473 361:-0.144654 362:-0.503743 363:-0.534005 364:-0.714008 365:-0.142583 366:-0.724749 367:-0.807209 368:-0.954189 369:-0.71918 370:-0.869606 371:-0.310652 372:-0.445232 373:0.548718 374:0.153183 375:-0.289817 376:0.0737834 377:0.0737834 378:0.237685 379:0.749207 380:-0.0604284 381:-0.551653 382:-0.831855 383:-0.512095 384:0.260989 385:-0.171968 386:0.633818 387:-0.476536 388:-0.294641 389:-0.295279 390:-0.556914 391:-0.231211 392:-0.655522 393:-0.44471 394:-0.0639476 395:-0.374708 396:0.0068725 397:-0.738952 398:-0.58615 399:-0.263328 400:-0.291372 401:-0.667247 402:-0.84985 403:-0.375322 404:-0.636641 405:-0.611166 406:-0.421886 407:0.111439 408:-0.70444 409:-0.706535 410:0.0087134 411:-0.871874 412:-0.572206 413:-0.700485 414:-0.46786 415:-0.633719 416:-0.715016 417:-0.534129 418:-0.744705 419:-0.65613 420:-0.656878 421:-0.927111 422:-0.62287 423:-0.828365 424:-0.707129 425:-0.780285 426:-0.383746 427:-0.505795 428:-0.487332 429:-0.635736 430:-0.159573 431:-0.439472 432:-0.321212 433:-0.541674 434:-0.182782 435:-0.731077 436:0.969043 437:-0.183091 438:-0.346184 439:-0.122474 440:-0.885146 441:-0.427867 442:-0.614797 443:-0.578267 444:-0.593876 445:-0.0959737 446:-0.805851 447:0.584699 448:-0.682148 449:-0.743696 450:-0.700742 451:-0.143905 452:-0.556299 453:-0.157058 454:-0.0852809 455:-0.641298 456:-0.290862 457:-0.0639476 458:-0.738462 459:-0.943634 460:0.0089496 461:-0.273815 462:-0.353319 463:-0.628699 464:-0.610033 
-35.79678778051542 -51.8940023898931 0.6261955746293225 3.054352898785603 0 64.92159520646075 24.77785384532968 0 12.64953041617101 12.57510315950574 0 1.524065609529633 0:0.80832 1:-1 2:-1 3:0.365242 4:0.478824 5:-0.641808 6:-0.62044 7:-1 8:-0.384348 9:1 10:-0.392528 11:-1 12:0.728428 13:-1 14:-1 15:-1 16:-0.734281 17:0.803811 18:-0.386241 19:-1 20:-0.137303 21:-1 22:-0.833914 23:-1 24:0.811224 25:-0.671804 26:-0.386241 27:-1 28:-0.233169 29:-0.476015 30:-0.19491 31:-0.707509 32:0.48847 33:-0.247665 34:-0.343609 35:0.048463 36:0.504828 37:-0.510044 38:-0.363618 39:-0.737443 40:-0.49843 41:-0.426674 42:0.640253 43:0.638462 44:-0.31209 45:-1 46:-0.135876 47:-0.685733 48:-0.549188 49:-0.206262 50:-1 51:-0.749274 52:-0.79527 53:-1 54:-1 55:-1 56:-1 57:-1 58:-0.562406 59:0.309963 60:0.74522 61:0.535897 62:-1 63:-0.602884 64:-1 65:-1 66:-1 67:-0.298727 68:0.52944 69:-0.727107 70:-0.151435 71:-1 72:-1 73:0.00329722 74:-0.62044 75:-0.384348 76:-1 77:-1 78:-0.473892 79:-0.302163 80:-1 81:-0.498508 82:-1 83:-0.713337 84:-0.761825 85:-1 86:-0.563482 87:-0.817751 88:-0.308591 89:-0.209406 90:-1 91:-0.423857 92:-1 93:-1 94:-1 95:-1 96:-1 97:-1 98:-0.386241 99:-1 100:-1 101:0.788393 102:-1 103:0.0479003 104:-1 105:-0.359315 106:-0.650585 107:-0.170605 108:0.0586481 109:-1 110:-1 111:-1 112:-1 113:0.921227 114:0.701278 115:-1 116:-0.470676 117:-0.210819 118:-1 119:-1 120:-1 121:-1 122:-0.234787 123:-1 124:-0.432756 125:-1 126:-1 127:-0.615893 128:-1 129:0.00321846 130:-0.371488 131:-0.0152076 132:-0.0146492 133:-1 134:-1 135:-1 136:1 137:-1 138:-1 139:0.946539 140:-0.832845 141:-0.179004 142:-0.179131 143:-1 144:-0.731625 145:-0.749274 146:-1 147:-0.150153 148:-0.672324 149:-0.441531 150:1 151:0.74522 152:-0.301966 153:-0.135727 154:-1 155:-1 156:1 157:-1 158:-1 159:-1 160:-0.460382 161:-0.534596 162:-1 163:-1 164:-0.178874 165:-1 166:-0.602884 167:-1 168:-1 169:-1 170:-1 171:-0.219453 172:-0.557801 173:-1 174:-0.296178 175:-0.534741 176:-1 177:-0.54456 178:-1 179:-0.54456 180:0.454256 181:-1 182:-0.411786 183:-1 184:1 185:0.23156 186:-0.414835 187:-0.792974 188:-0.195466 189:-1 190:-0.562406 191:-1 192:-0.491646 193:-0.450272 194:0.778449 195:1 196:1 197:-0.651043 198:-0.594054 199:0.052025 200:-1 201:-1 202:0.504789 203:0.309826 204:-1 205:-1 206:-1 207:-1 208:-0.498508 209:-0.43066 210:1 211:-0.652448 212:0.275449 213:-1 214:-1 215:-0.734568 216:-1 217:-0.297107 218:-1 219:-0.498508 220:-1 221:-1 222:-0.648199 223:-1 224:-1 225:0.0239087 226:-1 227:-1 228:-1 229:-0.451971 230:-1 231:-0.437577 232:-1 233:-1 234:-1 235:-0.474014 236:-0.507479 237:-1 238:-0.655448 239:0.147011 240:0.0586481 241:-0.411353 242:-1 243:-1 244:0.746617 245:-1 246:-1 247:-1 248:-1 249:1 250:-0.857665 251:-0.532631 252:-1 253:-1 254:-1 255:-0.247665 256:-1 257:-0.474723 258:1 259:-1 260:-1 261:-1 262:-0.308209 263:0.178926 264:-1 265:-0.686586 266:-1 267:-1 268:-1 269:-0.384348 270:1 271:-0.701802 272:-0.672377 273:-1 274:-1 275:-1 276:-0.590411 277:0.0575968 278:-1 279:0.410666 280:-1 281:-1 282:0.33766 283:-0.11548 284:0.365385 285:-0.735421 286:-0.43066 287:-0.589566 288:-0.498508 289:0.191347 290:-1 291:-0.384704 292:0.275958 293:-0.562406 294:-1 295:-0.307692 296:0.916842 297:-0.498391 298:-1 299:-1 300:-1 301:-1 302:-0.835911 303:-1 304:-0.373234 305:-0.749195 306:-1 307:-1 308:-0.177553 309:-1 310:-0.23497 311:-1 312:-0.423986 313:1 314:-0.489776 315:-0.498508 316:-1 317:-0.668225 318:-1 319:-1 320:-0.310151 321:-1 322:-0.562406 323:-1 324:-1 325:-1 326:0.382818 327:-1 328:-1 329:-1 330:-1 331:-1 332:-0.86038 333:0.84734 334:-0.163941 335:-0.641808 336:-1 337:-0.0792736 338:-0.304897 339:-0.563482 340:-1 341:-1 342:-1 343:-1 344:-1 345:-1 346:-1 347:-0.541356 348:-1 349:-0.0434262 350:-1 351:-0.575209 352:-1 353:-1 354:-1 355:-1 356:-1 357:-0.43066 358:-1 359:-1 360:-1 361:-1 362:-1 363:-0.20552 364:-0.844914 365:-1 366:-0.384156 367:-0.137303 368:-1 369:-0.720753 370:-0.363697 371:-1 372:0.191595 373:-1 374:-1 375:-0.20552 376:-0.164312 377:-0.164312 378:-0.236251 379:-0.0792736 380:-0.617805 381:-0.928363 382:-0.749195 383:-1 384:-0.373234 385:-0.470842 386:-1 387:0.784916 388:-1 389:-0.426674 390:0.220397 391:-0.235519 392:-1 393:-1 394:-0.534741 395:-1 396:-0.672377 397:-0.0649693 398:-1 399:-1 400:-1 401:-1 402:-1 403:-1 404:-1 405:-1 406:0.149748 407:-1 408:-1 409:-0.212166 410:-1 411:0.637351 412:-1 413:-1 414:0.0586481 415:-0.404327 416:-1 417:-1 418:-1 419:-0.384348 420:0.396085 421:1 422:-0.550204 423:-0.232051 424:-0.772069 425:-1 426:-1 427:-1 428:-1 429:-0.498508 430:0.157399 431:-1 432:-0.62044 433:0.0936163 434:-0.582101 435:-0.781218 436:-1 437:-1 438:-0.384348 439:0.0470884 440:-1 441:-1 442:-1 443:-0.602884 444:-1 445:0.618131 446:-1 447:-1 448:-0.124538 449:-0.490265 450:-0.235336 451:-1 452:-0.898206 453:-0.206262 454:-0.345223 455:-1 456:-0.562406 457:-0.0691916 458:0.17033 459:-0.831744 460:-0.498508 461:-1 462:0.0525449 463:-0.874637 464:-0.441531 
-8.249409565234645 -20.79243700641576 11.89609050058319 21.62125105456038 0 14.95480541712143 8.238784343525667 1.49593696162911 15.94278035331065 18.74903654156726 2.728996423987635 21.65488069213076 0:0.380436 1:-1 2:-1 3:-1 4:-0.435547 5:-1 6:-1 7:-1 8:-1 9:-1 10:-1 11:-1 12:-0.340276 13:-1 14:-1 15:-0.515109 16:-0.391467 17:-1 18:-0.0626441 19:-1 20:-0.341434 21:-0.247803 22:-1 23:-1 24:-1 25:-0.498767 26:-1 27:1 28:-1 29:1 30:-0.38541 31:-0.553297 32:-0.715933 33:-1 34:-1 35:-1 36:-0.617081 37:-0.625978 38:-1 39:-0.599014 40:-0.489429 41:0.751212 42:-1 43:-1 44:-0.474863 45:-1 46:0.319448 47:-0.760094 48:-1 49:0.212227 50:-1 51:-0.617081 52:0.250689 53:-1 54:-1 55:-1 56:0.00246609 57:-1 58:-1 59:1 60:-1 61:-1 62:-0.268117 63:-0.39351 64:-1 65:-0.848295 66:-0.360178 67:-1 68:-1 69:-0.72221 70:-1 71:0.531795 72:-0.905184 73:-0.234103 74:-1 75:-1 76:1 77:-1 78:-1 79:0.0657636 80:0.447478 81:0.531795 82:-1 83:-0.562197 84:1 85:-0.875173 86:1 87:-0.72175 88:0.0556157 89:-1 90:-1 91:-1 92:1 93:-1 94:-1 95:-1 96:-0.331689 97:-1 98:-1 99:-1 100:0.10337 101:-1 102:-1 103:0.600394 104:-1 105:-1 106:0.0672793 107:-1 108:-1 109:-1 110:-1 111:-1 112:-1 113:-1 114:-1 115:-1 116:-1 117:0.204891 118:-1 119:-1 120:-1 121:-1 122:-1 123:-0.0902648 124:-1 125:-1 126:-1 127:-0.70678 128:-0.821502 129:0.914593 130:0.119578 131:-1 132:-1 133:-1 134:-0.270088 135:-1 136:-0.389258 137:-0.393887 138:-1 139:0.485949 140:-0.234143 141:-0.0763488 142:-1 143:-1 144:-0.590256 145:-1 146:1 147:-1 148:-0.499718 149:-1 150:-0.23662 151:-1 152:-0.64472 153:0.319537 154:-0.835547 155:-1 156:-1 157:-1 158:0.00246609 159:-0.592787 160:-1 161:0.421122 162:-1 163:-1 164:-1 165:-1 166:-0.39351 167:1 168:-1 169:-1 170:-0.304435 171:0.192082 172:0.350685 173:-1 174:-1 175:-1 176:-1 177:-1 178:-1 179:-1 180:0.11015 181:-1 182:-0.101657 183:-1 184:0.0178404 185:-1 186:-0.553297 187:-0.683822 188:-1 189:0.21298 190:-1 191:-1 192:0.397129 193:-0.664258 194:0.163738 195:0.0178859 196:-0.389258 197:-0.46706 198:-0.380217 199:-1 200:-1 201:-1 202:-1 203:1 204:-1 205:-0.304435 206:-1 207:0.194417 208:-1 209:-1 210:0.0179466 211:-1 212:-1 213:-1 214:-1 215:-0.392124 216:-0.0597533 217:-0.463425 218:-1 219:-1 220:-1 221:-1 222:-1 223:-0.924103 224:-1 225:0.876034 226:1 227:-0.301946 228:-0.805269 229:-0.7718 230:-1 231:-0.141046 232:-1 233:-0.234143 234:-1 235:-1 236:-0.247803 237:0.710079 238:-1 239:-1 240:-1 241:-1 242:-1 243:0.00246609 244:1 245:-1 246:-1 247:-0.499641 248:-1 249:-0.23662 250:-1 251:-1 252:-1 253:-1 254:-1 255:-0.617081 256:-1 257:-1 258:-0.23662 259:-1 260:-0.515109 261:-0.289439 262:-1 263:1 264:0.164478 265:-0.0426847 266:-0.0755235 267:-0.234103 268:0.0657636 269:-1 270:0.526761 271:-0.0891607 272:-1 273:-1 274:-1 275:-1 276:-0.374655 277:-1 278:-1 279:1 280:0.531795 281:-0.862087 282:-0.744714 283:-1 284:-1 285:0.212227 286:-1 287:-0.373169 288:0.531795 289:0.81947 290:-1 291:-1 292:0.948083 293:-1 294:-1 295:0.0569881 296:-0.121978 297:-0.425622 298:-1 299:-1 300:-0.654899 301:-1 302:-1 303:-1 304:-0.0427786 305:-0.234163 306:-0.567496 307:-1 308:0.255679 309:0.447907 310:-1 311:-1 312:-1 313:-1 314:-1 315:-1 316:-1 317:-1 318:-1 319:-1 320:-1 321:-1 322:-1 323:-1 324:-1 325:-1 326:-1 327:0.315534 328:-1 329:0.167544 330:-1 331:-1 332:-0.893417 333:-1 334:-0.361769 335:-1 336:-0.28496 337:-1 338:-1 339:1 340:-1 341:0.21298 342:-0.304435 343:-1 344:-1 345:-1 346:-0.31014 347:-0.29954 348:-0.393887 349:-1 350:-1 351:-1 352:-0.237693 353:-0.545132 354:-1 355:-1 356:0.21298 357:-1 358:-1 359:-0.393887 360:-0.650973 361:0.460916 362:-0.652193 363:-1 364:-1 365:-0.0626441 366:-0.0597533 367:-1 368:-1 369:-0.786829 370:-1 371:-1 372:-0.39351 373:-1 374:0.167544 375:-1 376:-1 377:-1 378:0.166428 379:-1 380:-1 381:-0.67178 382:-0.808541 383:1 384:-1 385:-1 386:-1 387:-0.318715 388:-1 389:-0.124394 390:-1 391:-1 392:-0.764655 393:-1 394:-1 395:-1 396:0.501077 397:-1 398:-1 399:-0.124394 400:-0.527646 401:0.212227 402:-1 403:-0.101657 404:-0.58626 405:-1 406:-1 407:-1 408:-1 409:-0.599014 410:-1 411:1 412:-1 413:-0.0902648 414:-1 415:-1 416:-1 417:-1 418:0.396108 419:-1 420:0.278972 421:0.593206 422:-0.313054 423:-0.609135 424:-1 425:-0.499641 426:0.530593 427:-1 428:-1 429:-1 430:0.767071 431:-1 432:-0.420321 433:-1 434:-1 435:-1 436:-1 437:-1 438:-1 439:-1 440:-1 441:-0.599014 442:-1 443:-1 444:-1 445:-1 446:0.1794 447:-1 448:-1 449:-1 450:-1 451:-1 452:-0.689072 453:0.212227 454:1 455:-1 456:-1 457:-1 458:-0.106593 459:-0.743033 460:0.531795 461:-1 462:-1 463:-0.808541 464:-1 
-86.94144158555642 -44.26976305641409 0 7.394438621820152 83.3092263552779 62.37944577345297 118.1747207216077 11.87509310036096 0 0 52.94003129067963 0 0:-0.727573 1:-0.468336 2:0.13769 3:-0.211396 4:-0.777135 5:-0.379163 6:-0.542246 7:-0.935475 8:-0.211257 9:-0.526382 10:-0.88554 11:-0.721665 12:-0.41412 13:0.481537 14:0.0386354 15:-0.641153 16:-0.849884 17:-0.694284 18:0.665257 19:1 20:-0.610099 21:-0.0350039 22:-0.724611 23:-0.401952 24:0.705782 25:-0.629059 26:0.0637971 27:-0.407954 28:-0.480139 29:-0.664453 30:-0.120575 31:-0.735531 32:-0.901933 33:-0.829971 34:-0.307439 35:-0.736571 36:-0.962163 37:-0.557123 38:-0.13688 39:-0.802055 40:-0.886644 41:-0.265482 42:-0.217183 43:0.789744 44:-0.3263 45:-0.348661 46:-0.631052 47:-0.940786 48:-0.728158 49:0.0168986 50:-0.581262 51:-0.924484 52:-0.876546 53:-0.565429 54:-0.0795968 55:-0.277311 56:-0.406494 57:-0.29468 58:-0.604329 59:-0.802651 60:-0.474052 61:-0.652885 62:-0.530383 63:-0.192093 64:-0.681198 65:-0.958824 66:-0.494753 67:-0.233977 68:0.20967 69:-0.945159 70:0.215197 71:-0.584236 72:-0.953195 73:-0.546554 74:-0.628045 75:0.299152 76:-0.161132 77:-0.356506 78:0.0308022 79:0.419707 80:1 81:-0.13079 82:-0.602706 83:-0.676001 84:-0.838533 85:-0.870669 86:-0.0129835 87:-0.917632 88:-0.791604 89:-0.40396 90:-0.554665 91:-0.609413 92:-0.161132 93:-0.767065 94:-0.350074 95:0.477331 96:-0.670092 97:0.0958313 98:0.387779 99:0.0229494 100:-0.373897 101:0.257697 102:1 103:0.184383 104:-0.135882 105:-0.726452 106:-0.552347 107:0.124903 108:-0.641153 109:-0.821772 110:0.730342 111:-0.356761 112:-0.501925 113:-0.782922 114:-0.294995 115:-0.46173 116:-0.840457 117:-0.643325 118:0.296356 119:-0.456382 120:-0.640945 121:-0.802165 122:0.614758 123:0.436404 124:-0.829028 125:-0.637905 126:-0.553686 127:-0.840827 128:-0.903103 129:-0.829971 130:-0.968425 131:-0.431155 132:-0.851658 133:-0.820589 134:0.2246 135:-0.87594 136:-0.608113 137:-0.401839 138:0.595096 139:-0.816617 140:-0.873979 141:-0.973951 142:-0.19558 143:-0.66501 144:-0.767493 145:-0.678782 146:0.233702 147:-0.391674 148:-0.827188 149:-0.64237 150:-0.472613 151:-0.605594 152:-0.701966 153:-0.70704 154:-0.967534 155:0.138377 156:-0.736463 157:-0.939279 158:0.632552 159:-0.417314 160:-0.26812 161:-0.912309 162:-0.861759 163:0.801783 164:-0.257774 165:-0.366052 166:-0.461395 167:-0.670903 168:-0.141879 169:-0.719081 170:-0.759875 171:1 172:-0.866814 173:0.27621 174:-0.4962 175:-0.263802 176:-0.536642 177:-0.622416 178:0.350265 179:-0.519464 180:0.2599 181:-0.506154 182:-0.601105 183:-0.282306 184:-0.748774 185:-0.350553 186:-0.801648 187:-0.937646 188:0.454912 189:-0.162004 190:-0.439375 191:-0.592378 192:-0.885116 193:-0.966894 194:-0.751093 195:-0.849341 196:-0.668461 197:-0.631815 198:-0.847024 199:-0.00921962 200:-0.592105 201:0.615851 202:-0.357513 203:-0.30928 204:-0.58794 205:-0.107657 206:-0.883548 207:-0.705191 208:-0.546554 209:-0.0131907 210:0.657763 211:-0.371491 212:0.633533 213:-0.967997 214:-0.811013 215:-0.780012 216:-0.164996 217:-0.814762 218:-0.789577 219:-0.13079 220:-0.461395 221:0.873162 222:-0.151669 223:-0.990633 224:-0.252237 225:-0.814884 226:-0.473555 227:0.343446 228:-0.948743 229:-0.943706 230:0.774419 231:-0.279451 232:0.638919 233:-0.886644 234:-0.0408448 235:-0.841502 236:0.187664 237:-0.0296231 238:0.246386 239:-0.740801 240:0.236249 241:0.464062 242:0.547332 243:-0.307439 244:-0.539429 245:-0.298762 246:0.616064 247:-0.234588 248:-0.691052 249:-0.322066 250:-0.817647 251:-0.577407 252:-0.575641 253:-0.162525 254:-0.637211 255:-0.886647 256:-0.537279 257:-0.604275 258:-0.058216 259:-0.11835 260:-0.25825 261:-0.263802 262:-0.11371 263:-0.891431 264:0.608976 265:-0.78746 266:-0.612243 267:-0.433192 268:0.104217 269:-0.443331 270:-0.522796 271:-0.483148 272:-0.728382 273:0.357883 274:-0.481445 275:0.851165 276:-0.768605 277:0.155247 278:-0.396685 279:-0.916485 280:-0.508557 281:-0.904722 282:-0.861419 283:1 284:-0.820085 285:-0.581345 286:0.158289 287:-0.0411205 288:-0.584236 289:0.615815 290:-0.559074 291:0.530341 292:0.153355 293:-0.835046 294:0.109306 295:-0.687107 296:-0.898962 297:-0.943324 298:-0.497203 299:-0.373339 300:-0.9659 301:-0.334102 302:-0.703262 303:-0.828478 304:0.322606 305:-0.905487 306:-0.839961 307:0.346885 308:-0.736663 309:0.357673 310:-0.365749 311:0.0367977 312:-0.0885482 313:-0.758858 314:-0.0773163 315:-0.773277 316:-0.222402 317:-0.72494 318:0.368642 319:0.252506 320:-0.272138 321:-0.796189 322:-0.24154 323:-0.916214 324:0.129662 325:-0.561299 326:-0.713482 327:-0.0264293 328:0.316849 329:0.325036 330:-0.545025 331:-0.487459 332:-0.910591 333:0.0208173 334:-0.181212 335:-0.595155 336:-0.294342 337:0.595849 338:0.152557 339:-0.901326 340:-0.829971 341:-0.910233 342:-0.416512 343:-0.177895 344:1 345:-0.513149 346:-0.591571 347:0.313326 348:-0.880467 349:0.657981 350:1 351:-0.327836 352:-0.548679 353:-0.640806 354:-0.0105494 355:-0.98789 356:-0.28186 357:-0.442068 358:0.0743846 359:-0.491551 360:-0.483257 361:0.513627 362:-0.828307 363:-0.700609 364:-0.824715 365:-0.0749424 366:-0.698342 367:-0.805049 368:-0.932637 369:-0.926408 370:-0.872129 371:-0.606596 372:-0.3117 373:0.234714 374:0.55529 375:-0.521074 376:-0.307169 377:0.700157 378:0.496413 379:0.38772 380:-0.827211 381:-0.924416 382:-0.905487 383:-0.440754 384:-0.291601 385:-0.0430749 386:-0.740801 387:-0.663687 388:-0.167696 389:0.209837 390:-0.448434 391:0.152226 392:-0.814155 393:-0.13595 394:-0.579315 395:-0.678679 396:-0.728382 397:-0.612526 398:0.0367793 399:-0.0493628 400:-0.46393 401:-0.790755 402:-0.0547868 403:-0.379374 404:-0.591688 405:-0.618689 406:0.646508 407:-0.763356 408:-0.122598 409:-0.445952 410:-0.829971 411:-0.753178 412:0.310826 413:-0.236852 414:-0.521537 415:-0.14696 416:-0.538658 417:-0.461395 418:-0.27676 419:-0.164996 420:-0.705471 421:-0.901745 422:-0.423743 423:-0.787821 424:-0.501891 425:-0.382706 426:0.20866 427:0.333265 428:-0.8765 429:-0.357513 430:-0.0845861 431:-0.13079 432:-0.485205 433:0.0299504 434:-0.181212 435:-0.521885 436:-0.524452 437:-0.89194 438:-0.489591 439:-0.579154 440:-0.891581 441:-0.643896 442:-0.873444 443:-0.491235 444:-0.925313 445:-0.0245632 446:-0.330754 447:0.753643 448:-0.637211 449:0.728695 450:-0.193201 451:0.018623 452:-0.846576 453:-0.40159 454:0.0856909 455:-0.135841 456:-0.472256 457:-0.403933 458:-0.42674 459:-0.949323 460:0.284974 461:-0.13595 462:-0.60336 463:-0.943324 464:-0.558294 
